{
  "model_type": "sea_llm",
  "version": "1.0.0",
  "parameters": {
    "vocab_size": 256,
    "embedding_dim": 128,
    "hidden_dim": 256,
    "context_length": 128,
    "layer_count": 2,
    "num_heads": 4
  },
  "weights_format": {
    "type": "int16",
    "range": [
      -32768,
      32767
    ]
  },
  "weights": [
    -451,
    15144,
    -2183,
    1255,
    -4256,
    -3055,
    -12952,
    10805,
    -2460,
    -7251,
    7624,
    13386,
    -1626,
    -6372,
    8007,
    -9161,
    -7267,
    8896,
    6164,
    -3070,
    -97,
    -7422,
    -7428,
    -3414,
    -490,
    -8661,
    5753,
    11,
    523,
    690,
    770,
    -2924,
    -91,
    14490,
    680,
    -6798,
    10163,
    7249,
    894,
    -1749,
    -7218,
    3623,
    -9569,
    -5709,
    -8148,
    -16009,
    -152,
    6627,
    -1601,
    -3385,
    -5449,
    15987,
    -4413,
    -19676,
    10353,
    2119,
    2131,
    4914,
    1884,
    -15708,
    13776,
    5754,
    -12881,
    10495,
    1821,
    -5303,
    -963,
    -4641,
    205,
    6593,
    2253,
    1979,
    4128,
    -3824,
    -7860,
    4531,
    -571,
    5307,
    -7741,
    3396,
    2901,
    2183,
    -3513,
    -4012,
    -6007,
    1095,
    3934,
    -9619,
    -15491,
    943,
    -3280,
    -2289,
    -777,
    3769,
    -1128,
    1443,
    3075,
    3056,
    -9102,
    -5036,
    9678,
    621,
    -12649,
    457,
    8728,
    -172,
    12780,
    1397,
    2462,
    -5156,
    -32,
    -4011,
    -4358,
    -10914,
    3242,
    -10337,
    1888,
    10569,
    -2410,
    9582,
    -1198,
    271,
    -2727,
    -1385,
    15530,
    10520,
    2564,
    -7477,
    10250,
    -9070,
    -1493,
    -9141,
    -5575,
    9387,
    4337,
    1779,
    -14355,
    -1713,
    14318,
    6411,
    4232,
    10583,
    -8965,
    4145,
    10526,
    -1240,
    14403,
    -1571,
    18107,
    4117,
    11469,
    10406,
    534,
    2193,
    -3054,
    -2354,
    -20383,
    -12854,
    -771,
    -3768,
    -13988,
    8,
    4348,
    3913,
    9438,
    20539,
    -9120,
    4405,
    -1192,
    -14147,
    3331,
    -8959,
    -11851,
    -11428,
    3007,
    4065,
    -3683,
    6052,
    1993,
    -9729,
    -10033,
    4869,
    8491,
    -11778,
    -4743,
    1857,
    -6210,
    6436,
    -1403,
    -2691,
    7066,
    -11810,
    13788,
    974,
    -6849,
    12011,
    -6433,
    14467,
    -10167,
    -2315,
    -13770,
    4057,
    -6045,
    7967,
    5625,
    17023,
    1973,
    -8346,
    6298,
    14610,
    -7482,
    7105,
    1973,
    9685,
    -1969,
    -10460,
    9890,
    4453,
    -9737,
    -665,
    -7719,
    7885,
    4968,
    14898,
    6683,
    -14083,
    -5636,
    9497,
    14759,
    2011,
    -7849,
    6785,
    3326,
    805,
    -14990,
    -1582,
    1661,
    6866,
    4215,
    -3735,
    3422,
    1282,
    -7181,
    -13572,
    -3799,
    -13875,
    1840,
    -6329,
    -83,
    7863,
    -9400,
    6795,
    3560,
    5626,
    6333,
    -2945,
    4042,
    -4273,
    -3481,
    -9293,
    -1995,
    17215,
    -3746,
    -21850,
    -6170,
    -10597,
    376,
    -2322,
    6653,
    3782,
    2788,
    10854,
    1078,
    -6021,
    -4014,
    8471,
    760,
    3350,
    -4775,
    -7765,
    -11013,
    2360,
    5886,
    5709,
    -9012,
    4084,
    -135,
    -6932,
    -7491,
    7113,
    8750,
    16615,
    11348,
    5537,
    13507,
    -7700,
    -10811,
    1863,
    -8273,
    -12823,
    -3164,
    6808,
    7502,
    2096,
    1667,
    -7104,
    -2496,
    4104,
    695,
    -145,
    357,
    177,
    -3644,
    3327,
    -3049,
    -2253,
    11733,
    2784,
    23077,
    -3203,
    1075,
    3105,
    15225,
    -6047,
    -2438,
    -3023,
    -3967,
    10298,
    -1693,
    -1666,
    5092,
    4755,
    -3367,
    5614,
    -4170,
    -4747,
    -6493,
    2227,
    -5575,
    7457,
    4762,
    -2469,
    -1354,
    -7858,
    20423,
    -11702,
    8323,
    -3081,
    -1894,
    -3666,
    -10568,
    2832,
    -17587,
    5707,
    -8186,
    -3495,
    -13421,
    5823,
    -2067,
    -774,
    4319,
    5811,
    -10032,
    -11752,
    -7335,
    2359,
    -5725,
    -8898,
    -6156,
    6333,
    14274,
    1913,
    -18343,
    -3772,
    -18906,
    -1986,
    8241,
    1075,
    18173,
    -3957,
    -6254,
    215,
    12261,
    -10712,
    -2073,
    5684,
    7186,
    4613,
    -64,
    13930,
    -1551,
    2409,
    16889,
    -3951,
    1282,
    3217,
    4096,
    -6120,
    -7963,
    15712,
    -7644,
    -3146,
    -24721,
    -2904,
    -13700,
    9655,
    10647,
    3600,
    272,
    -5078,
    -2611,
    19451,
    -2901,
    -5300,
    3570,
    2119,
    -2990,
    -10678,
    10964,
    3719,
    11978,
    -4920,
    3385,
    -9548,
    1957,
    -5122,
    5343,
    -2399,
    5188,
    -11847,
    1952,
    4547,
    -11657,
    -7797,
    -13769,
    1500,
    896,
    3801,
    -11055,
    5241,
    -12010,
    7881,
    5539,
    4823,
    2168,
    -3094,
    1762,
    1715,
    5051,
    -4749,
    -61,
    68,
    15986,
    3216,
    11966,
    -2181,
    -8779,
    4325,
    -6481,
    12599,
    -665,
    6199,
    -5664,
    24616,
    -5380,
    -9486,
    -4908,
    -8554,
    1990,
    117,
    -9254,
    -11987,
    -1338,
    2772,
    -4686,
    3201,
    -12484,
    -6867,
    15592,
    1051,
    6137,
    -2500,
    -5199,
    -1613,
    8203,
    -1669,
    -2905,
    -8794,
    3197,
    5035,
    5125,
    -4808,
    -7353,
    -10190,
    5063,
    -1580,
    -4185,
    4084,
    -4026,
    9115,
    6063,
    -200,
    -8085,
    -4693,
    8206,
    3368,
    -4502,
    8809,
    -7077,
    -1832,
    -7367,
    -3618,
    -1804,
    3023,
    12908,
    14477,
    -4463,
    -12154,
    3481,
    6322,
    5510,
    21486,
    -4525,
    -4122,
    8532,
    -8135,
    -10643,
    20084,
    6776,
    1525,
    367,
    -12516,
    9244,
    27,
    819,
    11315,
    -1460,
    -4491,
    -3908,
    2249,
    -2017,
    1822,
    -788,
    -10027,
    -5049,
    2535,
    -6274,
    -8845,
    14107,
    8196,
    6255,
    -6387,
    -13813,
    -9294,
    -11198,
    -2978,
    9146,
    117,
    9133,
    5529,
    3613,
    9946,
    3947,
    -8674,
    7090,
    982,
    -5186,
    -6905,
    5404,
    -9118,
    10654,
    8801,
    -1813,
    6665,
    -2360,
    220,
    749,
    -4008,
    4868,
    -562,
    -4914,
    -240,
    -13967,
    -7322,
    3980,
    4423,
    -4028,
    -2901,
    3311,
    20491,
    1409,
    414,
    -7205,
    12276,
    -6200,
    -1777,
    -6400,
    5795,
    -6317,
    18339,
    6819,
    6397,
    1701,
    -10992,
    3758,
    18318,
    -4139,
    680,
    -6961,
    8181,
    3972,
    5192,
    2785,
    -2039,
    11484,
    -4884,
    6354,
    -629,
    9680,
    -3276,
    -2756,
    -11386,
    4173,
    -1227,
    21711,
    609,
    8170,
    9388,
    10180,
    5428,
    -8651,
    497,
    7586,
    -1339,
    376,
    -4437,
    720,
    9894,
    8824,
    5968,
    1855,
    1867,
    -8382,
    2424,
    -11270,
    -2213,
    4099,
    -12745,
    1583,
    5244,
    901,
    3633,
    1930,
    1007,
    1328,
    6427,
    -13593,
    -1018,
    13013,
    -8639,
    5628,
    -370,
    -14917,
    1161,
    3458,
    17708,
    -13962,
    -1278,
    -6071,
    12127,
    11983,
    6641,
    9228,
    3730,
    4090,
    1002,
    -2294,
    -5337,
    -8924,
    -2772,
    -14866,
    12953,
    -6181,
    -9003,
    -6762,
    10164,
    -7186,
    1515,
    1836,
    3968,
    13942,
    6788,
    -9710,
    5190,
    -11878,
    1142,
    -6317,
    7059,
    -6824,
    1927,
    -8787,
    7830,
    12941,
    -11213,
    -7925,
    9645,
    3292,
    6441,
    5418,
    7305,
    13645,
    -8270,
    17131,
    -13822,
    -4576,
    5183,
    -5647,
    -3182,
    -8836,
    5065,
    8969,
    2741,
    -3062,
    -1231,
    -7629,
    7137,
    5030,
    5017,
    -9733,
    -2907,
    -912,
    5404,
    445,
    -9922,
    12871,
    546,
    -5766,
    11473,
    -7052,
    -9652,
    -3449,
    4235,
    -1154,
    9953,
    -3219,
    3574,
    7696,
    5796,
    -11702,
    -6633,
    -14253,
    2829,
    -12147,
    -3548,
    -10107,
    8919,
    16759,
    4555,
    -13314,
    -12506,
    6967,
    49,
    -7990,
    2976,
    8619,
    -7410,
    -23469,
    -294,
    6988,
    6410,
    767,
    -4397,
    -401,
    12525,
    4887,
    -11247,
    -12814,
    -2923,
    -2793,
    -4389,
    862,
    1142,
    5955,
    2320,
    -4165,
    2295,
    126,
    460,
    -2285,
    5089,
    -7390,
    -11725,
    -8673,
    18963,
    4139,
    -7826,
    -5198,
    -5381,
    -2361,
    -11793,
    -2607,
    2980,
    1922,
    2269,
    3269,
    -4326,
    -5677,
    -5175,
    -84,
    -2080,
    -4591,
    3054,
    -4505,
    -4620,
    9414,
    5254,
    3919,
    -2756,
    -10622,
    5865,
    6713,
    -2161,
    -4252,
    -3303,
    10399,
    -1707,
    -6226,
    400,
    -3049,
    3940,
    -4877,
    8662,
    17180,
    -4298,
    6678,
    8962,
    10348,
    7017,
    4124,
    6274,
    -558,
    -15566,
    -4175,
    1879,
    -12207,
    7755,
    -2607,
    8741,
    -3738,
    3065,
    5360,
    8904,
    3047,
    6432,
    -7468,
    14051,
    -13774,
    -1963,
    -400,
    844,
    -9048,
    2123,
    -11166,
    1608,
    181,
    -6495,
    -8147,
    1669,
    6496,
    -6685,
    -14555,
    3206,
    -3251,
    3381,
    15117,
    -8245,
    1580,
    5106,
    -6553,
    367,
    17057,
    4584,
    -16994,
    7682,
    -194,
    4051,
    328,
    10513,
    -13191,
    -2926,
    2656,
    -5477,
    -5639,
    5585,
    -6722,
    16116,
    -6889,
    611,
    -2078,
    -10468,
    -17394,
    1881,
    9728,
    -1809,
    -16396,
    -69,
    -3371,
    1492,
    -11207,
    8999,
    -4969,
    1558,
    4143,
    -4942,
    9717,
    -4781,
    -218,
    -8869,
    -18591,
    -11137,
    -5911,
    -811,
    5633,
    -10544,
    5852,
    2621,
    -5357,
    7691,
    10835,
    -1076,
    -2219,
    -5796,
    -815,
    -14369,
    1608,
    317,
    7751,
    4437,
    5276,
    11989,
    -10369,
    -5041,
    -4071,
    -15271,
    6611,
    9044,
    5167,
    -5495,
    -1088,
    200,
    11048,
    2372,
    -3269,
    -592,
    -8695,
    2595,
    4303,
    2459,
    -1696,
    -8125,
    7361,
    4716,
    583,
    8070,
    -3017,
    1386,
    16967,
    -1952,
    757,
    1339,
    6143,
    -4765,
    5950,
    201,
    -14344,
    2375,
    5864,
    -1508,
    -11071,
    -13983,
    1818,
    3200,
    -4722,
    -6391,
    -1083,
    11452,
    -334,
    2151,
    -4934,
    -5367,
    -3713,
    1154,
    5848,
    6986,
    20897,
    11750,
    13869,
    6819,
    5875,
    62,
    5863,
    -2011,
    -14370,
    -3047,
    -5873,
    1352,
    -16980,
    12819,
    -9123,
    -12281,
    499,
    -13909,
    4135,
    2588,
    -10051,
    -10893,
    3864,
    -6981,
    -7675,
    7947,
    6258,
    -5076,
    15559,
    4393,
    -9782,
    -5050,
    -726,
    5391,
    6757,
    -4872,
    -15067,
    -6010,
    -12869,
    -13533,
    -108,
    -5804,
    -14214,
    12299,
    15424,
    4675,
    5014,
    -8750,
    2398,
    -11759,
    11028,
    1693,
    -8169,
    7936,
    65,
    1705,
    2151,
    3596,
    -10557,
    5574,
    15454,
    9083,
    2786,
    -2132,
    5196,
    -2957,
    6889,
    -6294,
    4560,
    -2018,
    4312,
    5355,
    1676,
    -3574,
    -7718,
    73,
    -15451,
    7779,
    1452,
    -14478,
    -7262,
    5951,
    9221,
    -7072,
    -6540,
    -7941,
    -9490,
    4730,
    -14018,
    8515,
    -7456,
    189,
    2532,
    3053,
    -7103,
    -8725,
    3415,
    5026,
    9619,
    8701,
    -8454,
    2869,
    -7366,
    11646,
    3566,
    1554,
    1411,
    -12097,
    -22962,
    -3348,
    4476,
    -4894,
    3423,
    12940,
    8046,
    -9345,
    -3843,
    696,
    1639,
    10656,
    -14701,
    -10480,
    9621,
    -2686,
    -13698,
    7044,
    8433,
    498,
    -1761,
    13993,
    -14914,
    -426,
    4338,
    2125,
    6449,
    7890,
    -1874,
    -2626,
    -9490,
    -5987,
    -397,
    4702,
    13303,
    1706,
    -878,
    2980,
    -8027,
    -11818,
    -9122,
    10749,
    136,
    1748,
    -1097,
    -15686,
    -3716,
    -2414,
    12561,
    14598,
    7040,
    958,
    -821,
    15850,
    4294,
    4652,
    7414,
    1104,
    22865,
    -11511,
    -9084,
    -3115,
    -1601,
    -1195,
    -2541,
    6174,
    -5519,
    9156,
    4999,
    4535,
    -5740,
    4149,
    2226,
    -3440,
    -5797,
    2127,
    -16267,
    1107,
    8778,
    2239,
    -10595,
    -12290,
    9253,
    -14023,
    -1980,
    5358,
    3728,
    -891,
    2155,
    3803,
    5596,
    -2104,
    -6385,
    9124,
    -6122,
    -1171,
    997,
    9712,
    -3370,
    4611,
    4078,
    10084,
    -4035,
    -296,
    569,
    -3198,
    5770,
    -1828,
    -11673,
    9897,
    6256,
    8054,
    -885,
    -1780,
    -5052,
    11365,
    -4836,
    -4263,
    -15626,
    -2358,
    -3157,
    18327,
    10871,
    3365,
    -841,
    -1513,
    13039,
    2881,
    13237,
    6614,
    10022,
    5796,
    -4297,
    4307,
    14278,
    3542,
    -3476,
    -3450,
    7444,
    6417,
    5100,
    11886,
    -13130,
    1615,
    -14562,
    4304,
    -13344,
    3776,
    9882,
    12944,
    7747,
    -2607,
    -272,
    -11133,
    -2195,
    -4863,
    -2889,
    -9301,
    4167,
    19210,
    10607,
    -6482,
    13289,
    6683,
    6662,
    4895,
    -3530,
    4150,
    478,
    -4297,
    5029,
    -2055,
    -9749,
    7170,
    -13827,
    3851,
    -8555,
    -11881,
    4805,
    -9484,
    -10522,
    21943,
    -4303,
    -5826,
    -3873,
    3866,
    15321,
    -3973,
    -1714,
    226,
    -2487,
    13831,
    6024,
    2644,
    10460,
    7784,
    -13912,
    6888,
    3809,
    247,
    -4500,
    -1211,
    -13468,
    -28348,
    -7346,
    -3467,
    13346,
    4644,
    -2909,
    -2587,
    17593,
    3419,
    12099,
    4907,
    3027,
    -2422,
    -1273,
    2489,
    2566,
    14445,
    19392,
    5010,
    -1853,
    -6201,
    7416,
    -5909,
    -2913,
    8520,
    3952,
    3362,
    -3234,
    11601,
    5613,
    -3397,
    -3100,
    -4366,
    -215,
    13315,
    14581,
    8010,
    -3877,
    5011,
    1060,
    10401,
    6092,
    -18003,
    -11331,
    -1184,
    -3184,
    3168,
    9621,
    -1524,
    8948,
    1702,
    7751,
    -1082,
    1921,
    -7502,
    -6613,
    -9417,
    3329,
    1621,
    13483,
    5177,
    -4066,
    -19555,
    -4551,
    -4801,
    -3535,
    5999,
    -937,
    3710,
    4737,
    -3535,
    -12304,
    -3371,
    1416,
    460,
    10733,
    3187,
    -7306,
    -4809,
    -7039,
    -11427,
    7614,
    -2900,
    -19412,
    3485,
    6391,
    40,
    7902,
    20,
    4726,
    -3430,
    6224,
    -5102,
    13420,
    -2184,
    396,
    -11037,
    -92,
    -9312,
    -3830,
    -12523,
    -1376,
    -15470,
    4484,
    -2379,
    11892,
    -11557,
    -9016,
    -6118,
    -16242,
    -4107,
    -4646,
    -9427,
    7299,
    5966,
    8526,
    8381,
    -15763,
    -1641,
    -14615,
    -7704,
    1344,
    2973,
    4500,
    2194,
    2614,
    7658,
    4169,
    -12455,
    -21342,
    5408,
    -3406,
    3614,
    -4027,
    -6802,
    -1608,
    -3218,
    -8657,
    8683,
    -9964,
    5100,
    3925,
    -4654,
    5467,
    -10197,
    -2200,
    -2368,
    -2203,
    6449,
    5483,
    1314,
    -7343,
    6552,
    886,
    -1788,
    -2483,
    -19711,
    -7810,
    -20332,
    -4183,
    -8841,
    14457,
    -1051,
    14612,
    -12238,
    20568,
    8185,
    -2155,
    -8814,
    4426,
    11423,
    2526,
    -2048,
    -6235,
    -6134,
    13348,
    9442,
    -13398,
    872,
    9241,
    5183,
    4589,
    6821,
    -12557,
    -5032,
    -11982,
    -7703,
    12114,
    952,
    -11885,
    -8883,
    -3063,
    6662,
    -3825,
    -18692,
    2871,
    -8623,
    2022,
    2204,
    4315,
    -8886,
    -10529,
    -85,
    -2178,
    -10998,
    -5639,
    -9353,
    -10075,
    -6587,
    -9231,
    4513,
    -5232,
    -1935,
    1609,
    -13856,
    -9708,
    558,
    -3520,
    -6075,
    8611,
    -3629,
    11229,
    -3941,
    3192,
    -8723,
    -7013,
    -9602,
    -866,
    -10790,
    1662,
    -52,
    6814,
    460,
    843,
    10363,
    -3270,
    -8579,
    -11553,
    -12926,
    13506,
    -5281,
    -8541,
    3581,
    6118,
    -1998,
    1430,
    -11156,
    7391,
    -5435,
    8493,
    10301,
    -13703,
    -5799,
    2670,
    -7220,
    11002,
    -11500,
    -2131,
    -7686,
    -7150,
    -516,
    18211,
    -14761,
    -2659,
    -4262,
    7997,
    -12473,
    -8938,
    11637,
    7353,
    -1461,
    1007,
    10591,
    -2403,
    -11977,
    -4927,
    -4861,
    6394,
    -14656,
    7474,
    -14834,
    -6388,
    -8108,
    2334,
    -563,
    -2533,
    2422,
    -6789,
    -1855,
    -7164,
    11114,
    3910,
    -6430,
    -8483,
    8224,
    273,
    -7518,
    2448,
    7494,
    -1968,
    5663,
    -8177,
    -8226,
    5074,
    -20441,
    -3291,
    14340,
    3785,
    3037,
    1710,
    21310,
    3730,
    -11255,
    -7237,
    -5407,
    -2194,
    2664,
    -5883,
    21162,
    -6043,
    -4299,
    4311,
    -106,
    -3408,
    9049,
    3141,
    -4300,
    6287,
    -3878,
    -9341,
    1651,
    4132,
    -628,
    -6131,
    17056,
    943,
    -13490,
    4143,
    -5108,
    -13200,
    8659,
    15001,
    -928,
    12812,
    -905,
    7405,
    -8325,
    5234,
    4967,
    -10809,
    -134,
    7235,
    -9365,
    5168,
    -3245,
    -6705,
    -1125,
    916,
    6299,
    -11834,
    -3722,
    -4901,
    4301,
    -2440,
    -4008,
    -10656,
    3241,
    1040,
    -2675,
    -3936,
    1546,
    3360,
    963,
    -15775,
    -728,
    12390,
    3859,
    5352,
    9838,
    -6418,
    -17979,
    -12239,
    -16854,
    2252,
    -9193,
    1135,
    -2436,
    -849,
    4975,
    18951,
    9247,
    -6407,
    -11739,
    -6365,
    -9456,
    7656,
    11962,
    -12863,
    9340,
    -4657,
    12191,
    7567,
    -17747,
    7899,
    -2836,
    5038,
    9875,
    12765,
    7643,
    8329,
    -4003,
    -9686,
    3060,
    3082,
    2997,
    -720,
    -1045,
    -10620,
    -7627,
    -2795,
    4135,
    1892,
    5294,
    2073,
    462,
    10187,
    3376,
    -11162,
    7908,
    1029,
    13322,
    -1126,
    -2540,
    12350,
    5230,
    -9573,
    14459,
    4094,
    -7687,
    -8994,
    -3535,
    6269,
    -892,
    5335,
    -559,
    1062,
    -5005,
    -229,
    -6521,
    -9628,
    -4928,
    -2297,
    -10785,
    4317,
    -6583,
    1736,
    11858,
    17220,
    4485,
    -3567,
    5173,
    518,
    774,
    17320,
    6704,
    -795,
    11571,
    1958,
    -7385,
    4177,
    -4874,
    4276,
    -4513,
    -10674,
    3374,
    -5365,
    4611,
    -5690,
    -5673,
    16259,
    -9901,
    344,
    -16440,
    -5468,
    2215,
    -1837,
    -13761,
    10723,
    -3743,
    8312,
    -8551,
    1379,
    5469,
    5369,
    -11594,
    6569,
    -13169,
    -5590,
    -322,
    -95,
    -1243,
    9104,
    8902,
    -10927,
    4987,
    -8969,
    -10419,
    -715,
    -10176,
    17486,
    -1529,
    -7274,
    173,
    -2759,
    -1926,
    4938,
    5783,
    10188,
    6637,
    8990,
    2684,
    19905,
    2145,
    -7622,
    10018,
    7028,
    -343,
    11440,
    -7759,
    -9628,
    2681,
    682,
    -345,
    94,
    -15105,
    4873,
    7830,
    -8653,
    -1080,
    19230,
    13437,
    -8329,
    3694,
    5087,
    5391,
    843,
    6825,
    -133,
    -17541,
    8676,
    14577,
    3663,
    -2508,
    -1856,
    6007,
    2244,
    8439,
    21710,
    12361,
    -20,
    8912,
    -7698,
    -19415,
    -3585,
    -12425,
    -4232,
    -2150,
    -4180,
    -2317,
    4115,
    5707,
    8727,
    9375,
    -15896,
    2319,
    -12675,
    58,
    91,
    4390,
    1249,
    4740,
    -7440,
    13748,
    5860,
    8707,
    -5134,
    7130,
    -7322,
    2025,
    -7786,
    117,
    579,
    10996,
    -9666,
    -476,
    5371,
    -5956,
    5215,
    -268,
    -6889,
    12039,
    -117,
    -2052,
    1088,
    5980,
    3021,
    1118,
    3715,
    -11026,
    10140,
    12744,
    7131,
    -17273,
    9185,
    -3100,
    20309,
    -3726,
    -11621,
    -245,
    -7008,
    23390,
    -4179,
    -3248,
    -1012,
    -4406,
    -5467,
    -953,
    2011,
    8346,
    -7213,
    -3287,
    12350,
    -8087,
    -3975,
    -224,
    -6639,
    1348,
    7120,
    5070,
    -5105,
    -6350,
    376,
    -2107,
    -19195,
    10065,
    -4344,
    -2683,
    4754,
    -3120,
    -3623,
    -2743,
    -1187,
    15632,
    1030,
    -9089,
    -8133,
    6674,
    -8922,
    7139,
    3312,
    -5995,
    -12467,
    -8473,
    -1344,
    10422,
    -6600,
    -8465,
    -18836,
    535,
    5769,
    927,
    -398,
    6243,
    6433,
    -5464,
    1330,
    -617,
    -119,
    5995,
    1242,
    5051,
    12261,
    1208,
    6436,
    5404,
    21682,
    -5087,
    -2220,
    -19859,
    450,
    -15234,
    -21310,
    -872,
    9283,
    9088,
    -5803,
    -8523,
    1601,
    9914,
    12917,
    -11725,
    1040,
    -15722,
    -15278,
    -10385,
    9476,
    -6260,
    -5588,
    5538,
    7646,
    -1023,
    -8194,
    1900,
    -12287,
    14076,
    -627,
    -9232,
    4072,
    10097,
    -7963,
    -14100,
    -163,
    179,
    -200,
    -971,
    1369,
    8475,
    5207,
    3606,
    2292,
    -10802,
    -9951,
    2977,
    1300,
    11770,
    -9813,
    6795,
    -1195,
    -5017,
    -5436,
    -11641,
    -7096,
    27138,
    -8023,
    3791,
    6952,
    8177,
    -7967,
    -3239,
    -8742,
    16235,
    -3760,
    1981,
    -7826,
    -14224,
    12420,
    10126,
    -14990,
    -758,
    -10998,
    -5994,
    1981,
    -5897,
    -41,
    4036,
    -4155,
    5489,
    14143,
    -1459,
    -3294,
    -10845,
    8853,
    14851,
    -9322,
    90,
    1546,
    -8808,
    9765,
    -2902,
    7205,
    -185,
    -16588,
    5845,
    -2804,
    3467,
    575,
    5294,
    -10473,
    8069,
    3366,
    5823,
    -1154,
    -6841,
    -2746,
    14962,
    5356,
    2562,
    7397,
    -7039,
    -4518,
    5566,
    1130,
    -6815,
    10611,
    -1445,
    5740,
    5707,
    6923,
    -3904,
    -7573,
    -6299,
    -11486,
    -5886,
    -11730,
    -3883,
    14832,
    -7524,
    536,
    7966,
    -17106,
    776,
    13862,
    2943,
    -2936,
    -6205,
    15217,
    -13134,
    11892,
    -10208,
    -16915,
    1004,
    19916,
    -6689,
    -8352,
    -1143,
    1385,
    -2032,
    -10050,
    8533,
    10113,
    -8632,
    -6770,
    -8678,
    5701,
    2400,
    10628,
    7097,
    -1713,
    -1353,
    -6912,
    4604,
    3287,
    -7310,
    3169,
    -11061,
    1427,
    -3360,
    9601,
    1270,
    7218,
    7324,
    7413,
    -4223,
    -7300,
    -1025,
    -2641,
    -14502,
    -8429,
    21061,
    13136,
    4658,
    2536,
    -9762,
    -4547,
    -5961,
    -4162,
    10176,
    -7929,
    8802,
    -20091,
    14378,
    -2180,
    8866,
    -1183,
    -3337,
    12414,
    -418,
    -8530,
    3052,
    -12462,
    -4385,
    2273,
    -10158,
    -1701,
    -7340,
    4335,
    1291,
    1212,
    2603,
    7388,
    -6666,
    -2763,
    10060,
    -13428,
    3857,
    6467,
    2363,
    10087,
    2671,
    2900,
    3567,
    15945,
    11173,
    17785,
    2636,
    -2397,
    5085,
    -2750,
    -1652,
    11930,
    752,
    8333,
    -6402,
    9605,
    -3218,
    2465,
    -3736,
    -2006,
    4046,
    7475,
    -11441,
    -4889,
    -1273,
    1615,
    -12492,
    -1367,
    6437,
    12688,
    -9297,
    -5519,
    2682,
    -9185,
    9454,
    -6283,
    2604,
    2724,
    578,
    13191,
    1715,
    14427,
    1358,
    -6628,
    2460,
    -13310,
    -2318,
    12196,
    6328,
    2201,
    -7399,
    -553,
    -7194,
    -7573,
    -2860,
    1130,
    6796,
    3191,
    -4829,
    7249,
    -4446,
    8103,
    -3473,
    -5071,
    -10018,
    6444,
    16042,
    955,
    13575,
    -2276,
    -1604,
    3258,
    2330,
    -11221,
    81,
    -3868,
    4885,
    -12160,
    32,
    1082,
    1988,
    -12646,
    -859,
    10252,
    -7519,
    2057,
    9366,
    -7097,
    -12337,
    -2488,
    2332,
    6089,
    -7544,
    -18743,
    -3783,
    3288,
    -321,
    -9050,
    -4695,
    -3144,
    7808,
    -2447,
    -2353,
    6320,
    345,
    -11027,
    -3806,
    6270,
    4496,
    5001,
    5256,
    -8930,
    8854,
    4418,
    7248,
    -12614,
    7626,
    -16402,
    -1791,
    -1688,
    1764,
    2095,
    4268,
    -1514,
    20691,
    -11007,
    -4400,
    -145,
    3499,
    13524,
    585,
    11141,
    -2924,
    -452,
    -2927,
    7804,
    -458,
    -8433,
    -2072,
    -5336,
    1187,
    4554,
    195,
    4457,
    -1092,
    2075,
    8550,
    -3874,
    -11902,
    -2414,
    7463,
    5676,
    6566,
    -12269,
    7284,
    -5374,
    8814,
    3750,
    -6055,
    7023,
    965,
    1005,
    -8979,
    -16316,
    -1002,
    1695,
    -986,
    7763,
    -14281,
    7115,
    -7497,
    1858,
    -20181,
    -10633,
    -13032,
    -3986,
    16034,
    6675,
    -8254,
    9842,
    -11206,
    -3009,
    4057,
    14526,
    8434,
    -829,
    -3822,
    -6202,
    9114,
    8819,
    2288,
    9375,
    -12394,
    -8968,
    4084,
    8653,
    -1518,
    3180,
    12460,
    223,
    11102,
    -8256,
    12956,
    -4259,
    1873,
    -1855,
    -4594,
    6097,
    -1859,
    -15192,
    2379,
    2985,
    -9006,
    -11872,
    6648,
    -2267,
    3937,
    -14690,
    -8794,
    1336,
    1750,
    3830,
    3349,
    -5274,
    -4003,
    4094,
    5415,
    2770,
    2765,
    9575,
    -3949,
    -6673,
    -7570,
    5212,
    -7657,
    3482,
    8270,
    2670,
    -464,
    -13067,
    -3854,
    -1803,
    19261,
    867,
    3108,
    -603,
    -16575,
    7586,
    -1916,
    19398,
    4678,
    8083,
    -76,
    -5739,
    -8094,
    7933,
    20627,
    16678,
    -654,
    -16075,
    13625,
    7035,
    -4566,
    -5055,
    6893,
    -2168,
    12744,
    5209,
    5974,
    1616,
    24452,
    6553,
    3771,
    3406,
    -12171,
    5721,
    -7858,
    1781,
    3392,
    12348,
    17967,
    14668,
    7479,
    14639,
    -13451,
    -3838,
    12073,
    -5253,
    1475,
    6138,
    1410,
    6961,
    5734,
    11837,
    496,
    -9615,
    -3221,
    -4996,
    -5393,
    -1843,
    3224,
    7084,
    4934,
    6250,
    3060,
    6397,
    3743,
    7327,
    2124,
    8621,
    20958,
    -836,
    -170,
    -3579,
    -6856,
    -1005,
    1975,
    2892,
    6176,
    4950,
    -3790,
    1535,
    15021,
    -29,
    5708,
    -26696,
    24046,
    -9014,
    6854,
    -514,
    -1349,
    -423,
    3507,
    -14034,
    10148,
    6231,
    1829,
    -11301,
    5239,
    -918,
    12419,
    -1828,
    -13669,
    4935,
    -5730,
    2466,
    11427,
    -9685,
    -11659,
    -8034,
    -2576,
    3501,
    6762,
    6082,
    5373,
    3488,
    6894,
    -4457,
    -4661,
    -9799,
    17263,
    1396,
    4836,
    14,
    6573,
    11444,
    12117,
    -2368,
    13010,
    3720,
    8545,
    6340,
    -2969,
    6511,
    5828,
    9227,
    1586,
    840,
    1818,
    -2086,
    6872,
    7730,
    19777,
    -14754,
    6407,
    -1032,
    -3242,
    8252,
    1615,
    -7542,
    696,
    -3539,
    2524,
    -14676,
    11753,
    -1485,
    -3126,
    -10617,
    -2175,
    -2484,
    10261,
    5417,
    7425,
    976,
    -10378,
    3518,
    -1730,
    -1003,
    6125,
    548,
    11445,
    381,
    7972,
    -3939,
    2169,
    -6949,
    -6147,
    9011,
    -3322,
    14291,
    2125,
    -13258,
    -1231,
    285,
    -6341,
    9628,
    -7724,
    8491,
    2028,
    -6194,
    12773,
    911,
    -5602,
    13167,
    4306,
    7665,
    -5229,
    2799,
    3929,
    16576,
    -11225,
    5019,
    -12544,
    6424,
    -7396,
    -6122,
    -4454,
    -1254,
    -7124,
    -1095,
    3823,
    -4483,
    -8,
    6607,
    -6372,
    -13532,
    2137,
    455,
    -6768,
    10712,
    2697,
    5383,
    1688,
    -10101,
    -15676,
    5915,
    3151,
    10091,
    5674,
    7086,
    -8072,
    -1063,
    -6307,
    -12519,
    10861,
    -5610,
    -25,
    -8847,
    9537,
    -11661,
    -2057,
    4599,
    1664,
    -3687,
    -1713,
    1464,
    -5444,
    8847,
    6017,
    -2064,
    -2466,
    -2709,
    11246,
    448,
    -4434,
    -1514,
    3384,
    8839,
    -2200,
    12319,
    -3139,
    -6267,
    10734,
    12210,
    3615,
    -4797,
    -1119,
    7905,
    10944,
    1667,
    -1754,
    2022,
    -8772,
    6123,
    -10858,
    3195,
    93,
    -838,
    5079,
    -2155,
    -2703,
    7523,
    -6875,
    -609,
    12269,
    91,
    5634,
    -5911,
    -11122,
    118,
    -9229,
    -5014,
    4734,
    -15005,
    8188,
    12055,
    -1491,
    -8425,
    -6638,
    -6630,
    -1704,
    15184,
    -1761,
    10970,
    9495,
    -13331,
    3665,
    3738,
    5882,
    4503,
    -13271,
    -7290,
    -14233,
    -2150,
    -1977,
    4033,
    10986,
    -8426,
    4164,
    2520,
    5745,
    -7152,
    -2518,
    -11253,
    889,
    -12259,
    -1103,
    5763,
    3736,
    6916,
    -7506,
    -5408,
    -6818,
    15060,
    11379,
    5922,
    1734,
    9242,
    3530,
    4780,
    -6969,
    -10561,
    -10325,
    833,
    -5145,
    2258,
    -4660,
    7850,
    7464,
    -3138,
    -8301,
    -5274,
    -555,
    922,
    3861,
    10295,
    4314,
    -5844,
    1046,
    -3588,
    2074,
    -2527,
    11882,
    10832,
    13011,
    -10239,
    2198,
    294,
    -14043,
    -435,
    7752,
    -1106,
    6768,
    23398,
    -350,
    3822,
    6582,
    -1712,
    3099,
    11067,
    -1023,
    1660,
    9879,
    -4957,
    3934,
    3657,
    13669,
    -163,
    -6588,
    3619,
    -6450,
    -13874,
    -3408,
    2253,
    -7894,
    -4368,
    3565,
    8252,
    3858,
    -7331,
    -7698,
    -5955,
    -680,
    -3368,
    -396,
    4002,
    990,
    11589,
    4907,
    -11423,
    6574,
    7032,
    -4411,
    -5631,
    -5357,
    -8125,
    3319,
    3799,
    -7908,
    9077,
    -6203,
    -3786,
    -5094,
    -11816,
    -4627,
    2505,
    -9268,
    2607,
    1806,
    8818,
    80,
    -307,
    -546,
    -6899,
    -7244,
    -7459,
    -715,
    -2301,
    9085,
    6691,
    -10958,
    3284,
    3039,
    -13916,
    3422,
    -11772,
    2236,
    2135,
    3185,
    2678,
    -4319,
    -3016,
    2578,
    2660,
    2636,
    -2395,
    -1235,
    -2087,
    4119,
    -727,
    -10795,
    -5232,
    2484,
    9760,
    5488,
    -10056,
    11920,
    3958,
    3581,
    -2749,
    5200,
    5927,
    3247,
    -13360,
    -8924,
    -13009,
    11556,
    7828,
    -3725,
    2421,
    -3619,
    3681,
    -6201,
    1010,
    5075,
    7436,
    -8358,
    1893,
    -1772,
    -11644,
    1700,
    7715,
    8997,
    -1096,
    -2537,
    5019,
    -2271,
    -1478,
    492,
    2801,
    -13388,
    10226,
    -7716,
    -9827,
    2343,
    -16566,
    5335,
    -1424,
    11321,
    -1295,
    -1331,
    767,
    -10861,
    -2862,
    17631,
    5915,
    2363,
    -5716,
    -11917,
    -5112,
    -6364,
    19194,
    6157,
    1509,
    -2179,
    -4897,
    -4845,
    9546,
    15671,
    1675,
    -1173,
    -2546,
    3396,
    8678,
    5368,
    -16477,
    -4272,
    3975,
    -3696,
    -7160,
    4378,
    9564,
    4231,
    10795,
    -3375,
    -2569,
    1665,
    4355,
    -1959,
    -1568,
    5445,
    953,
    7486,
    -13652,
    -9909,
    3969,
    623,
    17238,
    -2979,
    2488,
    -5648,
    6730,
    -17113,
    7952,
    -1135,
    -5103,
    4618,
    3173,
    8019,
    12450,
    1453,
    -4102,
    13264,
    12607,
    729,
    -866,
    -1029,
    -3865,
    -805,
    -129,
    3536,
    -1798,
    2178,
    5751,
    -16759,
    -2204,
    3378,
    -12793,
    19523,
    2384,
    -16196,
    7546,
    6993,
    -4635,
    687,
    4617,
    -9034,
    -13250,
    -2454,
    14217,
    -1631,
    6357,
    7501,
    2167,
    10247,
    -16366,
    -3693,
    -13042,
    -8530,
    7948,
    8104,
    -360,
    -5508,
    -3018,
    8658,
    -4868,
    -4344,
    492,
    5720,
    -10169,
    -2991,
    -11957,
    6768,
    15636,
    -34,
    12979,
    -11871,
    -2473,
    -838,
    1496,
    4177,
    4205,
    705,
    2747,
    16238,
    -1101,
    -1080,
    3292,
    -2479,
    -10466,
    -15785,
    -10344,
    4554,
    9668,
    -16418,
    -5973,
    3970,
    1672,
    536,
    5475,
    -301,
    -2517,
    -10524,
    -18208,
    7940,
    3152,
    -3947,
    167,
    -1705,
    -3765,
    4869,
    -53,
    -11917,
    7178,
    975,
    3016,
    -8646,
    1100,
    -7538,
    -4755,
    -10009,
    1613,
    800,
    -9247,
    13824,
    1596,
    -1614,
    -16778,
    2286,
    -1874,
    -1650,
    6821,
    -16491,
    7475,
    4703,
    3348,
    5293,
    2198,
    1012,
    8055,
    -2680,
    -2992,
    -4323,
    2484,
    2616,
    223,
    -11320,
    83,
    1433,
    -1168,
    -4787,
    -3188,
    3047,
    -3909,
    -3143,
    -10172,
    15718,
    3556,
    -7560,
    12333,
    -10968,
    -1492,
    3115,
    4657,
    3649,
    -16729,
    7243,
    -5687,
    -1901,
    6593,
    -11482,
    -4651,
    8768,
    -8225,
    -837,
    7724,
    1634,
    268,
    13627,
    -12376,
    1572,
    13978,
    12333,
    1615,
    -1372,
    -3738,
    1361,
    5633,
    4539,
    1068,
    -5520,
    1402,
    12364,
    -7204,
    4139,
    -2264,
    -2246,
    -22016,
    -3699,
    21313,
    -2559,
    -16072,
    -6648,
    117,
    -2372,
    241,
    7155,
    5335,
    955,
    8764,
    13518,
    -11187,
    3410,
    9454,
    -4032,
    3521,
    -12476,
    9522,
    -1662,
    9056,
    13131,
    5892,
    -8096,
    -9655,
    10912,
    1315,
    -5789,
    2144,
    -4590,
    1903,
    -2969,
    6713,
    658,
    4270,
    6172,
    -4010,
    -14561,
    8739,
    408,
    3827,
    2357,
    9598,
    3762,
    7489,
    11984,
    7300,
    10363,
    16672,
    858,
    5413,
    -7038,
    -4464,
    5302,
    -276,
    8724,
    8892,
    -13346,
    -12994,
    8537,
    4147,
    1410,
    -1896,
    2184,
    -815,
    -8910,
    1977,
    -13559,
    11113,
    3355,
    -1024,
    3380,
    6126,
    -17027,
    11084,
    16533,
    -786,
    2394,
    -8934,
    -4541,
    -5740,
    2451,
    -10887,
    -3026,
    702,
    6397,
    -5384,
    10396,
    4655,
    -9511,
    -1493,
    3845,
    12597,
    -5205,
    -1738,
    -842,
    -2771,
    14526,
    16344,
    -3874,
    387,
    -3474,
    -6119,
    -6647,
    -8980,
    -61,
    3974,
    571,
    -4290,
    4087,
    -3310,
    -3937,
    -3276,
    704,
    -496,
    7969,
    -5140,
    2575,
    1004,
    -2387,
    5641,
    -8972,
    -5001,
    2513,
    11909,
    1401,
    2753,
    -5430,
    -4068,
    23586,
    -8458,
    -932,
    4339,
    5555,
    3170,
    5076,
    15610,
    18153,
    -1051,
    -3378,
    -15844,
    8440,
    7690,
    1017,
    -5934,
    -13253,
    1527,
    -3527,
    -8935,
    10125,
    12024,
    -5639,
    -7632,
    -673,
    -6627,
    -7018,
    -13759,
    -6253,
    4188,
    744,
    -10791,
    -17773,
    4355,
    -2727,
    5738,
    7659,
    19029,
    -587,
    7036,
    6593,
    -23362,
    18881,
    2441,
    5706,
    -603,
    -14934,
    -4743,
    743,
    2113,
    2095,
    -3021,
    -39,
    -5220,
    4853,
    -712,
    -4246,
    -3454,
    -8932,
    4623,
    2105,
    -1843,
    3164,
    4416,
    -5781,
    611,
    -3186,
    1382,
    -7755,
    3251,
    6827,
    -11124,
    -5923,
    6541,
    -22719,
    15785,
    2019,
    5669,
    2008,
    9946,
    1802,
    4632,
    3522,
    6053,
    -8273,
    3979,
    -7020,
    -8174,
    -992,
    -8654,
    8054,
    9934,
    -10493,
    3619,
    16705,
    -1375,
    10937,
    -12378,
    6583,
    3829,
    10787,
    9235,
    3371,
    -4822,
    2041,
    -7706,
    4115,
    12908,
    2808,
    -5437,
    3943,
    3979,
    -372,
    2172,
    -8842,
    8616,
    -4825,
    6924,
    -3975,
    -8802,
    1600,
    5266,
    10065,
    -6233,
    7567,
    7951,
    10049,
    -9262,
    -13487,
    -324,
    -4736,
    -7570,
    -4768,
    4896,
    -12567,
    -13264,
    -1110,
    4089,
    -200,
    7396,
    -7038,
    2161,
    -1358,
    5440,
    3319,
    5751,
    -11634,
    6730,
    4700,
    5199,
    8547,
    -6464,
    -3528,
    5016,
    4891,
    2585,
    5803,
    -2489,
    -6867,
    1638,
    -5400,
    -333,
    2990,
    5828,
    4783,
    3185,
    -1733,
    -17862,
    11964,
    -7935,
    4666,
    -5723,
    7524,
    1951,
    7607,
    -3,
    9646,
    9682,
    8514,
    -11939,
    -9042,
    -2442,
    9220,
    5834,
    2423,
    3984,
    7158,
    -2726,
    -836,
    8879,
    13625,
    -2125,
    9134,
    872,
    8367,
    -3957,
    -8406,
    -9296,
    -7149,
    311,
    4760,
    1226,
    1843,
    -1151,
    -8091,
    1310,
    -5801,
    -6479,
    395,
    -10881,
    5438,
    9059,
    -481,
    585,
    -1360,
    -20,
    4799,
    10956,
    2514,
    1799,
    4734,
    2399,
    -9441,
    5000,
    -10797,
    5392,
    9712,
    4180,
    2532,
    -7723,
    2566,
    15384,
    -8397,
    3476,
    7284,
    -1679,
    -3854,
    390,
    14013,
    5986,
    -4821,
    -9092,
    -4188,
    -1506,
    12097,
    -1575,
    5526,
    12211,
    -5708,
    -5606,
    16021,
    5841,
    5323,
    -1943,
    -6700,
    -9062,
    3247,
    -39,
    2444,
    3252,
    -3102,
    7719,
    3131,
    -5075,
    -1889,
    -4032,
    -2299,
    -1700,
    12677,
    13668,
    -3345,
    5657,
    6622,
    -13182,
    -185,
    -1112,
    4906,
    -11092,
    136,
    -750,
    5665,
    8970,
    12701,
    -1380,
    -735,
    15490,
    204,
    4141,
    -5109,
    1103,
    7929,
    -2221,
    12210,
    -5910,
    -428,
    3703,
    13742,
    9466,
    1203,
    3592,
    -1435,
    -8671,
    11435,
    -8429,
    5583,
    -12598,
    9927,
    1071,
    -1062,
    3723,
    8609,
    -10461,
    11829,
    1629,
    6565,
    -5302,
    -7286,
    13355,
    1249,
    4442,
    9080,
    10812,
    1499,
    -19027,
    385,
    -5363,
    -4244,
    -5094,
    -3524,
    -8074,
    -7274,
    4598,
    13385,
    -9080,
    -1435,
    -2845,
    -20033,
    8476,
    -6142,
    10157,
    -5296,
    -3312,
    1964,
    111,
    2807,
    3177,
    9763,
    866,
    -375,
    -5826,
    -10947,
    8166,
    -5492,
    9647,
    -10659,
    -9661,
    -423,
    10899,
    5214,
    5590,
    -10856,
    -2568,
    -232,
    -4249,
    5959,
    2262,
    -4181,
    -1057,
    -10170,
    1050,
    1070,
    -3373,
    -8510,
    -12251,
    -6903,
    7416,
    13395,
    -2292,
    -1690,
    -6114,
    4516,
    -3824,
    5732,
    -397,
    2476,
    2963,
    -2075,
    -3547,
    -8756,
    -5709,
    -2353,
    -6541,
    7343,
    -12829,
    6416,
    -668,
    622,
    8991,
    -446,
    2704,
    2866,
    -9491,
    1565,
    2375,
    -5941,
    531,
    16854,
    8290,
    -586,
    -2034,
    7943,
    -2649,
    9084,
    7647,
    -35,
    10362,
    7053,
    10402,
    3676,
    6658,
    9419,
    4607,
    13315,
    13916,
    -6286,
    9208,
    7139,
    6756,
    -18879,
    -10261,
    -4801,
    2459,
    -7866,
    2512,
    4312,
    20349,
    1989,
    6159,
    -10333,
    -3776,
    4140,
    10229,
    9766,
    4121,
    -8494,
    11053,
    12636,
    741,
    9687,
    1054,
    -312,
    -720,
    568,
    -4699,
    -10702,
    2252,
    -431,
    1037,
    8394,
    15992,
    10689,
    -4346,
    1948,
    4577,
    18,
    4897,
    -1874,
    46,
    -4227,
    927,
    16774,
    9975,
    1381,
    21400,
    12400,
    714,
    5954,
    -10006,
    21033,
    -8115,
    -11756,
    319,
    8095,
    -10607,
    9115,
    -14206,
    -2366,
    9305,
    -5172,
    -6231,
    5028,
    -2999,
    2708,
    -222,
    -14323,
    883,
    4380,
    -5619,
    -14611,
    -7777,
    -1857,
    8228,
    -1074,
    -2584,
    531,
    582,
    6001,
    11157,
    -5911,
    -8021,
    5369,
    6655,
    -16919,
    5699,
    2030,
    5009,
    1769,
    374,
    -16844,
    -321,
    5670,
    13698,
    9399,
    -1859,
    7604,
    5823,
    3163,
    3706,
    1034,
    4229,
    13620,
    -3861,
    -865,
    -10280,
    -3441,
    27,
    4007,
    -501,
    2873,
    3904,
    7437,
    -4385,
    -5456,
    -3791,
    -5346,
    -8684,
    -12232,
    -14635,
    2841,
    -262,
    -11271,
    -4894,
    5284,
    6709,
    458,
    4792,
    2241,
    -4539,
    540,
    3001,
    4294,
    -6793,
    13872,
    8761,
    -5168,
    11117,
    -11061,
    9059,
    2874,
    5009,
    -4852,
    -5024,
    7542,
    8937,
    9337,
    -8004,
    7270,
    -9503,
    661,
    7507,
    -6411,
    5189,
    2665,
    3499,
    591,
    1268,
    -4008,
    13008,
    4151,
    1246,
    -6000,
    4407,
    -5576,
    -5467,
    2268,
    -5524,
    17545,
    -11552,
    6101,
    -9413,
    -26,
    8300,
    -14249,
    -1148,
    -6051,
    417,
    13487,
    -6508,
    -23635,
    9481,
    -3362,
    4426,
    -11764,
    -3422,
    -8068,
    6457,
    -2625,
    732,
    14024,
    -4063,
    -140,
    -10774,
    -4149,
    5565,
    5906,
    7401,
    4238,
    6647,
    6464,
    -11105,
    6330,
    -8132,
    -5996,
    -12922,
    16089,
    12912,
    10033,
    2474,
    9750,
    -13491,
    1882,
    767,
    -6121,
    -3634,
    5640,
    3281,
    -2542,
    1452,
    -3066,
    796,
    -2654,
    -5025,
    -6459,
    7881,
    9698,
    -1042,
    15136,
    1162,
    5730,
    465,
    9009,
    12070,
    5226,
    4942,
    -12284,
    -8086,
    1074,
    -4250,
    4009,
    -7479,
    -4996,
    2859,
    -11716,
    5058,
    -17588,
    92,
    -9497,
    -6018,
    5722,
    971,
    2672,
    -2925,
    -4508,
    -8400,
    11531,
    -2914,
    5230,
    3926,
    8097,
    -6790,
    -16252,
    -8237,
    9660,
    -12960,
    -1933,
    -8850,
    -6226,
    7463,
    -4399,
    -2763,
    8623,
    7505,
    17170,
    7361,
    2545,
    7955,
    -16409,
    3818,
    727,
    -693,
    -4956,
    7482,
    17899,
    -8392,
    -667,
    9516,
    2696,
    -2123,
    14705,
    6381,
    -992,
    -3073,
    4384,
    3324,
    -5107,
    -308,
    -15643,
    -3640,
    -2097,
    -4803,
    -8176,
    -1886,
    -10475,
    -4373,
    8890,
    7334,
    1034,
    -13079,
    -1981,
    -15599,
    1206,
    -14349,
    -4885,
    3485,
    4555,
    871,
    -16809,
    5709,
    7132,
    9544,
    -5864,
    10585,
    13685,
    -8595,
    -1358,
    -6879,
    -2650,
    -2352,
    -867,
    3839,
    5742,
    7672,
    5161,
    -11634,
    3210,
    -10026,
    56,
    -14666,
    -21032,
    667,
    -383,
    -10049,
    -5356,
    7569,
    -6822,
    1192,
    1375,
    -1030,
    -1786,
    5157,
    1931,
    2696,
    10995,
    6716,
    6357,
    2123,
    4563,
    14815,
    -8107,
    2657,
    -963,
    -7253,
    -6511,
    511,
    10115,
    13071,
    -4767,
    1152,
    14018,
    -5901,
    3051,
    -9326,
    -1548,
    -4110,
    -1607,
    -6469,
    3409,
    -3031,
    3219,
    2859,
    6630,
    6094,
    3439,
    -1475,
    2517,
    -7428,
    173,
    6401,
    14447,
    2785,
    8188,
    -5429,
    -2042,
    1326,
    -3170,
    5391,
    7790,
    12833,
    3131,
    -2457,
    -4711,
    6297,
    6652,
    -3376,
    1630,
    7916,
    7443,
    -2015,
    -492,
    5441,
    -35,
    -1888,
    8508,
    2784,
    1795,
    6791,
    -3484,
    -2302,
    1633,
    -10444,
    1050,
    -6526,
    1012,
    2648,
    6277,
    1045,
    19043,
    -7132,
    -10775,
    -1746,
    4165,
    -821,
    5885,
    -5993,
    -5656,
    -7441,
    4244,
    2508,
    -149,
    -11835,
    4201,
    -729,
    4073,
    -6392,
    1799,
    -4582,
    13470,
    10225,
    -10161,
    5003,
    -2412,
    14493,
    -10619,
    -14691,
    -17282,
    -2623,
    7587,
    12576,
    -4367,
    9980,
    19107,
    7430,
    -2689,
    -12418,
    192,
    -7439,
    9112,
    -1712,
    -4351,
    9404,
    -9884,
    10955,
    2257,
    -6950,
    -1865,
    13072,
    3986,
    -10086,
    -1237,
    -14728,
    3216,
    -8514,
    1642,
    7016,
    1851,
    13091,
    -6604,
    -11579,
    -8718,
    6431,
    991,
    4080,
    5866,
    482,
    3173,
    -9608,
    -1092,
    5674,
    -5277,
    3241,
    -561,
    -3222,
    11551,
    9111,
    2851,
    3271,
    918,
    -8236,
    9731,
    -4315,
    6599,
    -9813,
    4295,
    -2828,
    9856,
    6027,
    -8669,
    7229,
    11794,
    -2982,
    9528,
    -3161,
    -22457,
    -1847,
    -9139,
    7352,
    -1091,
    2250,
    -5280,
    -1468,
    -10945,
    5711,
    6002,
    10393,
    4224,
    -3659,
    -3660,
    -9839,
    1544,
    6761,
    -834,
    9508,
    11688,
    16893,
    -10678,
    5224,
    -5001,
    -14221,
    4192,
    2118,
    2093,
    -350,
    8320,
    -1497,
    7989,
    7017,
    4817,
    -4041,
    -3528,
    827,
    782,
    2980,
    8930,
    14857,
    5187,
    15006,
    9074,
    -10026,
    -13404,
    -2474,
    8337,
    -6517,
    -14405,
    1387,
    -2509,
    4324,
    7701,
    -75,
    -8813,
    3131,
    -5976,
    5204,
    18195,
    13411,
    -3290,
    -4878,
    1705,
    2078,
    -3502,
    22873,
    -11924,
    3740,
    14964,
    10756,
    -3830,
    16105,
    -9092,
    13788,
    -8167,
    -4510,
    4577,
    -2304,
    3533,
    11072,
    -6251,
    3439,
    -10279,
    -5412,
    12526,
    6964,
    -1767,
    559,
    -7945,
    -11986,
    7727,
    -2689,
    -1937,
    -559,
    2181,
    9405,
    1990,
    2515,
    -8601,
    -6806,
    -7915,
    -17661,
    2622,
    -2032,
    -13398,
    3643,
    4727,
    -15599,
    508,
    6780,
    -3125,
    -2123,
    11434,
    9333,
    4078,
    1925,
    5425,
    3896,
    -425,
    -11898,
    -1689,
    12037,
    -3483,
    -14856,
    7514,
    19459,
    -2518,
    6759,
    3210,
    -18590,
    -3505,
    4058,
    -1716,
    2832,
    -18358,
    13529,
    2017,
    3194,
    3172,
    -8990,
    -1788,
    -14187,
    9028,
    -11595,
    2008,
    1191,
    7926,
    2743,
    -4307,
    1414,
    -1481,
    3693,
    -929,
    -5971,
    6865,
    -3242,
    -2607,
    -433,
    3701,
    -3457,
    12469,
    -7992,
    -2924,
    3494,
    11202,
    -8221,
    -9462,
    5175,
    -11855,
    -3851,
    2290,
    -132,
    20673,
    -2219,
    -8373,
    -11118,
    7561,
    2470,
    -6538,
    -7867,
    2241,
    -3886,
    -2310,
    -5844,
    4729,
    -2393,
    -13150,
    6194,
    -14255,
    -7452,
    -1605,
    2850,
    6483,
    -322,
    -8137,
    5503,
    -9435,
    2511,
    -14132,
    -1080,
    7559,
    -1511,
    5247,
    -4866,
    -11469,
    16841,
    -3477,
    6113,
    18805,
    2033,
    -3220,
    8257,
    1803,
    319,
    -9371,
    -16770,
    -10179,
    -2805,
    -5265,
    -8512,
    7537,
    -9155,
    6217,
    9609,
    -10391,
    3652,
    -8603,
    -10216,
    -6984,
    -8469,
    8183,
    11644,
    1106,
    13083,
    -20239,
    1723,
    -9667,
    11099,
    -6173,
    -7554,
    10226,
    -4166,
    4223,
    -14295,
    2885,
    -136,
    10176,
    -3534,
    -12294,
    8368,
    -3972,
    -2010,
    2166,
    -4724,
    -1226,
    -14271,
    2409,
    -18414,
    2949,
    6362,
    7847,
    -2470,
    4974,
    5565,
    1212,
    19086,
    -2934,
    -9852,
    2309,
    -5645,
    13456,
    -11831,
    -5547,
    -4680,
    -6820,
    7824,
    -9282,
    -1372,
    6990,
    4735,
    7480,
    -22186,
    15,
    -1735,
    -9794,
    9835,
    327,
    2252,
    4984,
    -10626,
    -2487,
    3057,
    11900,
    6470,
    79,
    1416,
    1091,
    -6961,
    15234,
    6433,
    3626,
    12661,
    -6704,
    -9935,
    9240,
    -3022,
    -4091,
    -10869,
    6958,
    -5929,
    4662,
    21906,
    -232,
    -2088,
    10069,
    -1475,
    333,
    14243,
    -10510,
    569,
    -3600,
    -9476,
    1600,
    2213,
    -3500,
    2131,
    -9670,
    69,
    -8409,
    -10140,
    1865,
    -5754,
    -4200,
    -8360,
    -10898,
    3014,
    11352,
    -45,
    8142,
    14219,
    1881,
    -2494,
    -9457,
    -1277,
    582,
    -2069,
    -2055,
    -1037,
    -1558,
    1214,
    600,
    4823,
    3730,
    891,
    -14262,
    1682,
    7220,
    -4942,
    -1129,
    4618,
    -8860,
    -4966,
    -2170,
    3536,
    -8000,
    6704,
    -5988,
    8543,
    7279,
    3948,
    -14323,
    969,
    -4342,
    5325,
    3088,
    -1528,
    -3624,
    5625,
    7202,
    171,
    -1102,
    -3204,
    -9743,
    -11912,
    1174,
    12776,
    2695,
    -6001,
    572,
    -3495,
    -1455,
    -10509,
    3580,
    6642,
    650,
    -1886,
    6731,
    6974,
    596,
    -13817,
    3585,
    -375,
    1405,
    -4725,
    13762,
    10440,
    -8209,
    -7343,
    3597,
    -3073,
    10572,
    -4255,
    -8512,
    3880,
    9762,
    -3291,
    3535,
    3371,
    -6456,
    7652,
    1845,
    1068,
    4170,
    7854,
    -7088,
    -3720,
    3094,
    331,
    2590,
    -1794,
    7509,
    10936,
    -13801,
    10642,
    -5637,
    -2263,
    4924,
    -4397,
    532,
    -2631,
    1143,
    -9370,
    -7144,
    5281,
    14284,
    -7343,
    -14313,
    5594,
    -6291,
    -1785,
    7128,
    -3202,
    8888,
    -6837,
    11234,
    -333,
    -6234,
    -2563,
    -7627,
    11,
    6646,
    4170,
    10884,
    3798,
    2820,
    2262,
    -6899,
    5657,
    230,
    -9411,
    12785,
    2993,
    -5237,
    3940,
    -3727,
    5649,
    -7222,
    4133,
    3057,
    -7612,
    11990,
    -10825,
    -515,
    -8341,
    -3567,
    -8307,
    3672,
    6273,
    1652,
    4661,
    -4016,
    1979,
    9553,
    -4813,
    17758,
    195,
    4141,
    10274,
    10319,
    1064,
    3056,
    5020,
    -9133,
    -5164,
    8831,
    -2502,
    7729,
    1857,
    -4994,
    -6071,
    1372,
    12808,
    -14549,
    6652,
    -8297,
    7327,
    -368,
    1074,
    -3822,
    3671,
    -5360,
    9604,
    17032,
    11595,
    -5514,
    556,
    -10698,
    -1785,
    9492,
    5476,
    2653,
    8570,
    5408,
    -2684,
    1562,
    -7301,
    -6470,
    -11796,
    12785,
    2809,
    -468,
    -964,
    -2048,
    13074,
    -1434,
    1431,
    -3275,
    -1332,
    -16703,
    1006,
    9994,
    1393,
    246,
    -587,
    3091,
    58,
    -15065,
    5105,
    -176,
    -11596,
    8637,
    7188,
    5239,
    -13226,
    210,
    8916,
    7329,
    12404,
    -847,
    -22188,
    -7850,
    -2310,
    -4341,
    -1446,
    235,
    6356,
    -9390,
    -1491,
    -2703,
    -12905,
    -4115,
    -9363,
    -5793,
    17635,
    12612,
    -6064,
    5117,
    -7790,
    3401,
    7404,
    1068,
    -7820,
    -24103,
    -275,
    15588,
    4108,
    2785,
    -3689,
    10628,
    -2224,
    1754,
    -1526,
    7452,
    10540,
    -9382,
    5975,
    2219,
    -4644,
    -20937,
    13079,
    4573,
    7391,
    4690,
    4875,
    7104,
    -4151,
    -6143,
    5489,
    -104,
    -12315,
    6031,
    4548,
    601,
    4576,
    4998,
    -1916,
    -1630,
    -14105,
    -1871,
    -18232,
    4473,
    -3168,
    -12409,
    -4092,
    -14229,
    -10351,
    706,
    9199,
    7390,
    17680,
    4701,
    -14896,
    7166,
    -10477,
    11112,
    -4160,
    -8088,
    -10966,
    -12795,
    8567,
    -29,
    -1971,
    4800,
    -6457,
    6166,
    7331,
    113,
    9588,
    233,
    363,
    -7379,
    -1135,
    -9327,
    547,
    5649,
    -14783,
    -7491,
    3422,
    -13528,
    1848,
    2338,
    1196,
    -9702,
    4715,
    3259,
    1470,
    -4130,
    -20479,
    6743,
    -3205,
    388,
    4513,
    6161,
    4446,
    5088,
    -630,
    -5285,
    3735,
    8231,
    -2308,
    4737,
    -5215,
    -13424,
    -3704,
    -14401,
    -6050,
    1345,
    4804,
    2076,
    707,
    -3282,
    6693,
    5858,
    -21310,
    -4213,
    7564,
    -1834,
    -4496,
    5695,
    720,
    4193,
    -1139,
    6736,
    -2269,
    3172,
    -5229,
    922,
    -5668,
    -8921,
    -1236,
    -6823,
    -9783,
    -7824,
    -9420,
    -1812,
    18851,
    1670,
    -10277,
    2163,
    -749,
    -340,
    -2759,
    590,
    -7214,
    3526,
    5307,
    -9739,
    6911,
    -1661,
    8476,
    4251,
    -5163,
    4326,
    1017,
    10573,
    4024,
    -5044,
    -12327,
    -7427,
    7033,
    2012,
    -9194,
    -4964,
    14849,
    -13861,
    -5225,
    -13692,
    14060,
    647,
    -18958,
    13476,
    -1659,
    -14760,
    -21895,
    6138,
    -11310,
    3360,
    864,
    -3587,
    -7730,
    -1149,
    626,
    -12405,
    6197,
    4277,
    5683,
    3213,
    -9913,
    -18684,
    804,
    -325,
    -1465,
    6148,
    614,
    18878,
    -5958,
    -3499,
    -7200,
    3430,
    2896,
    -2054,
    4965,
    -878,
    -13882,
    -1202,
    11725,
    6609,
    11492,
    -2044,
    -16633,
    6306,
    -5466,
    9731,
    9785,
    -7928,
    1118,
    -5706,
    3005,
    -10410,
    -6350,
    -7500,
    2492,
    1755,
    8340,
    3733,
    4876,
    -1727,
    -880,
    -2053,
    10070,
    -17798,
    6719,
    2192,
    6696,
    3588,
    -6393,
    -15287,
    4156,
    3854,
    6375,
    3699,
    3075,
    6718,
    1198,
    -3701,
    -939,
    12859,
    -5245,
    -2943,
    15148,
    -4964,
    -6625,
    5927,
    -4844,
    808,
    8942,
    8257,
    -5946,
    6531,
    18258,
    220,
    -8828,
    -3361,
    12901,
    1918,
    8834,
    6068,
    4901,
    14888,
    17150,
    -1250,
    5888,
    -5779,
    3507,
    8065,
    4242,
    -9091,
    6982,
    688,
    -13068,
    -5545,
    5100,
    645,
    -7536,
    15115,
    -16098,
    -4009,
    -15242,
    -1506,
    -18944,
    7729,
    5222,
    4713,
    -2251,
    4762,
    -8594,
    6872,
    4963,
    4342,
    -5130,
    -3781,
    -2362,
    -6964,
    5578,
    21515,
    -272,
    -1663,
    -4086,
    3408,
    2766,
    2319,
    -2743,
    11659,
    11888,
    -11381,
    -7577,
    -1395,
    -854,
    8578,
    149,
    -22010,
    -7484,
    9393,
    -21480,
    -1322,
    1404,
    19337,
    -11486,
    -10093,
    6036,
    -1278,
    -3555,
    -7971,
    -15611,
    8532,
    -2931,
    -7141,
    -3552,
    -3574,
    506,
    -9835,
    2267,
    2997,
    -1645,
    1031,
    4024,
    -765,
    -931,
    -6311,
    -1822,
    9133,
    8898,
    6434,
    -1308,
    572,
    -2541,
    10619,
    3238,
    -10120,
    3225,
    3475,
    -1142,
    -8831,
    9455,
    1945,
    -1007,
    -3929,
    -14886,
    -4727,
    -3009,
    2793,
    -3577,
    -14995,
    1022,
    5543,
    5,
    -2595,
    1535,
    -784,
    3989,
    -4561,
    -7723,
    6467,
    -4499,
    13062,
    -274,
    -7063,
    2995,
    -3757,
    -5481,
    -8394,
    -3271,
    -955,
    10227,
    3841,
    19153,
    -4900,
    -5174,
    6136,
    1308,
    -23905,
    8014,
    6184,
    -6870,
    7104,
    -7162,
    5625,
    8883,
    7228,
    3178,
    -8749,
    14135,
    -23025,
    3983,
    -4943,
    -7600,
    -11527,
    21475,
    -4029,
    7344,
    -21439,
    -13148,
    -9296,
    -13852,
    357,
    -3143,
    2892,
    8658,
    9308,
    -9860,
    -2003,
    2759,
    7729,
    -2694,
    -2110,
    -7312,
    4128,
    5199,
    3011,
    12852,
    352,
    5954,
    2436,
    241,
    -12589,
    -7476,
    5974,
    13135,
    10412,
    -4799,
    22279,
    -4869,
    -11396,
    -2862,
    -5441,
    -7869,
    -8204,
    -7443,
    5110,
    1824,
    -4696,
    -2774,
    -4808,
    -3419,
    -4640,
    6223,
    7064,
    597,
    -2265,
    -1998,
    -21016,
    -1871,
    1333,
    4625,
    3644,
    7774,
    6647,
    -6252,
    2461,
    3424,
    -2459,
    5779,
    6032,
    3559,
    3386,
    -2606,
    7429,
    20338,
    14862,
    -423,
    -2696,
    6877,
    -2546,
    8722,
    -13889,
    5940,
    6256,
    -14068,
    -201,
    13543,
    8150,
    -1218,
    -11389,
    14736,
    6831,
    -9772,
    5654,
    14967,
    5360,
    -3616,
    18187,
    -3352,
    -1508,
    2322,
    109,
    1201,
    -740,
    14027,
    -5792,
    -10768,
    -5446,
    -2230,
    -3807,
    -6073,
    -2213,
    7221,
    5505,
    -266,
    -10320,
    -9457,
    9125,
    -1996,
    -9697,
    17102,
    14758,
    9098,
    -16196,
    8791,
    6884,
    4916,
    -1045,
    10288,
    313,
    4862,
    1969,
    5615,
    -1406,
    7632,
    -5655,
    21976,
    -106,
    3676,
    -683,
    9141,
    -16700,
    2319,
    -11846,
    -7103,
    -1529,
    3262,
    16442,
    731,
    10082,
    1227,
    -8945,
    -9102,
    3764,
    6441,
    6329,
    -3830,
    -7265,
    -8780,
    -551,
    -2033,
    -921,
    -6386,
    -8978,
    -6865,
    -5353,
    9907,
    -9355,
    -4106,
    -3285,
    -1588,
    -2375,
    -1212,
    12428,
    -7484,
    -10590,
    -15359,
    4217,
    -7628,
    1937,
    8386,
    -18209,
    -579,
    -2310,
    3229,
    7716,
    -2640,
    -11585,
    2749,
    -2363,
    -1709,
    427,
    6927,
    8460,
    291,
    -5670,
    -7857,
    -14557,
    7501,
    -16635,
    11358,
    -4478,
    5191,
    -6975,
    -6957,
    -9245,
    7707,
    1947,
    -4208,
    6724,
    -8719,
    -2506,
    9026,
    -13096,
    -24479,
    1481,
    -6528,
    -3776,
    -3187,
    6892,
    -14853,
    2195,
    8278,
    -8086,
    -4527,
    -8633,
    -4716,
    15799,
    -522,
    -3813,
    12881,
    9914,
    -839,
    4442,
    -11208,
    -10563,
    12803,
    -7313,
    1740,
    -2986,
    -6844,
    15964,
    -13006,
    6103,
    2521,
    2649,
    2698,
    -1965,
    -19490,
    -12237,
    -4261,
    22518,
    -8673,
    1288,
    6339,
    -9792,
    4903,
    2682,
    7216,
    3195,
    -4349,
    -996,
    585,
    -376,
    -11852,
    5420,
    1174,
    -9209,
    6435,
    2219,
    -5832,
    9688,
    -14190,
    -14292,
    -707,
    16274,
    -97,
    -511,
    -3664,
    -694,
    3460,
    1280,
    8734,
    7506,
    -1687,
    -2141,
    11603,
    -8133,
    10153,
    -2655,
    7386,
    -7425,
    -2705,
    -2921,
    1169,
    6664,
    7984,
    13644,
    5179,
    -15558,
    -3874,
    -862,
    -5124,
    -130,
    8162,
    7393,
    -7528,
    -5454,
    -12324,
    -5186,
    -2384,
    -14354,
    -12846,
    -481,
    -8414,
    12825,
    9248,
    1377,
    -1906,
    -10528,
    -1446,
    -2465,
    10130,
    -1766,
    -2797,
    3714,
    548,
    -5626,
    11232,
    7895,
    21081,
    -4585,
    3922,
    -4996,
    9022,
    -18008,
    -20032,
    11336,
    -8569,
    594,
    8384,
    15056,
    4677,
    8123,
    -8401,
    -9781,
    -6040,
    2484,
    1046,
    -1161,
    -8485,
    3126,
    3073,
    -5149,
    2451,
    -7083,
    11317,
    -2623,
    -14570,
    -11784,
    4476,
    -5106,
    -4912,
    -390,
    3894,
    2817,
    2616,
    -4015,
    2587,
    -7804,
    9991,
    1460,
    -9616,
    4080,
    17312,
    1210,
    2493,
    2024,
    1695,
    8455,
    3935,
    -2318,
    -7199,
    13076,
    1210,
    9623,
    -212,
    -4445,
    -937,
    7606,
    16724,
    -7733,
    20010,
    3369,
    -11387,
    -1635,
    -7270,
    -9744,
    6498,
    -3822,
    2427,
    11727,
    -802,
    -1355,
    -1106,
    -7794,
    12085,
    6079,
    6689,
    9316,
    -14981,
    -6669,
    -13299,
    -2996,
    6985,
    -700,
    -2268,
    14502,
    -478,
    7797,
    -15099,
    -8548,
    -996,
    -4639,
    1300,
    -3993,
    -4932,
    -2265,
    -19000,
    -2216,
    -595,
    13629,
    2429,
    -285,
    -1744,
    -7037,
    4957,
    -14994,
    -6878,
    -5320,
    -5198,
    13817,
    1896,
    18012,
    -1117,
    -6009,
    -6606,
    2175,
    -13614,
    -10226,
    6229,
    -1558,
    3018,
    -1676,
    3456,
    10821,
    7443,
    -20372,
    -6975,
    -6542,
    7179,
    -4564,
    12502,
    -12777,
    -5898,
    -508,
    -7117,
    23669,
    13229,
    -1642,
    -2805,
    1622,
    -3068,
    5216,
    -1610,
    11862,
    4054,
    10852,
    -10904,
    4375,
    -700,
    20631,
    -13312,
    -5696,
    -5061,
    6889,
    -7921,
    -3556,
    10613,
    -14820,
    -10550,
    -1221,
    5009,
    -10134,
    19107,
    1366,
    7706,
    -3646,
    -1794,
    -13128,
    644,
    3355,
    -8416,
    6139,
    5458,
    -8429,
    -2984,
    -3958,
    1330,
    2682,
    7473,
    8668,
    25556,
    2952,
    6542,
    963,
    7025,
    -14149,
    12018,
    -230,
    -1626,
    2076,
    -7665,
    2740,
    -7846,
    3886,
    14603,
    4845,
    -1191,
    -1310,
    -1794,
    5853,
    -8076,
    9690,
    572,
    -19098,
    -7328,
    2190,
    2203,
    5970,
    -1089,
    3193,
    -2961,
    -7898,
    -2104,
    -91,
    3342,
    3007,
    2214,
    -20427,
    555,
    3427,
    164,
    -5284,
    7818,
    -17665,
    13735,
    -11980,
    8012,
    1831,
    -2054,
    -2725,
    -64,
    -234,
    -2048,
    6688,
    5211,
    -2503,
    3882,
    -7361,
    -10414,
    -29,
    2369,
    -10642,
    4009,
    616,
    13256,
    -1683,
    12600,
    12841,
    -8599,
    15794,
    8252,
    -10959,
    -4342,
    1860,
    2225,
    -2316,
    1460,
    -221,
    8653,
    -14073,
    10496,
    8199,
    10499,
    -4317,
    6325,
    -8587,
    2652,
    -287,
    3229,
    -5378,
    -11600,
    -5470,
    2021,
    4286,
    -10026,
    -25078,
    388,
    4317,
    5746,
    23635,
    9150,
    -1566,
    -2880,
    9363,
    -4888,
    13529,
    7651,
    -12303,
    -1049,
    -2661,
    -2635,
    15393,
    -5291,
    9896,
    -16447,
    962,
    -10544,
    -1425,
    3762,
    5141,
    -2346,
    6137,
    7803,
    11047,
    -2528,
    4454,
    6375,
    -14428,
    10316,
    -27357,
    2030,
    -11109,
    18034,
    8551,
    11543,
    968,
    6623,
    -17753,
    9242,
    12266,
    -13551,
    10015,
    9374,
    -5210,
    -2080,
    -4384,
    10511,
    -6566,
    4722,
    6158,
    7605,
    5511,
    -7914,
    10768,
    -568,
    -1393,
    2068,
    5531,
    8320,
    -5620,
    -2068,
    95,
    -2193,
    4603,
    -10467,
    -8105,
    -5557,
    2781,
    7910,
    -8626,
    -6192,
    -25189,
    -1535,
    -910,
    9538,
    6662,
    -10851,
    15844,
    4301,
    2237,
    -1289,
    2974,
    -18051,
    -14805,
    -12521,
    -7458,
    14981,
    162,
    11487,
    -3146,
    5800,
    6704,
    593,
    2302,
    -7805,
    -7130,
    4077,
    -485,
    -7929,
    -4655,
    -9611,
    4810,
    7380,
    1375,
    1918,
    887,
    -8322,
    -7541,
    20733,
    2613,
    -11696,
    16981,
    -5149,
    19857,
    -12704,
    452,
    1084,
    -6610,
    6131,
    13797,
    -8612,
    11942,
    -5720,
    -7553,
    4273,
    4385,
    14195,
    8956,
    -4510,
    -5657,
    8715,
    7709,
    8603,
    -3253,
    -11216,
    -3225,
    -12894,
    -753,
    -11271,
    -6935,
    -3359,
    1488,
    -3787,
    6762,
    -3319,
    -4392,
    9197,
    6119,
    -1424,
    -11755,
    4258,
    4053,
    4324,
    -1736,
    -116,
    8860,
    28044,
    -3472,
    6096,
    -5459,
    3140,
    4571,
    1354,
    -7505,
    -7132,
    -17476,
    -1251,
    -14675,
    4561,
    -4565,
    -10863,
    -7274,
    7765,
    -10162,
    -4617,
    6172,
    -235,
    -2804,
    -3208,
    -5211,
    -13667,
    8959,
    -10136,
    -4301,
    -1734,
    8388,
    -6779,
    -2016,
    10850,
    -3993,
    -15188,
    15227,
    -4168,
    2644,
    -5691,
    -8235,
    -3709,
    -4786,
    -14065,
    -24603,
    -781,
    9989,
    -11213,
    5944,
    1642,
    339,
    -3055,
    -2801,
    11891,
    13980,
    7524,
    -9317,
    -6522,
    9341,
    -5893,
    11545,
    -6655,
    -7988,
    5834,
    -5015,
    7354,
    -2208,
    -8094,
    8239,
    1118,
    7784,
    -10377,
    582,
    -10789,
    7253,
    20260,
    -5198,
    -1932,
    -8180,
    1277,
    -3149,
    5011,
    11601,
    651,
    2200,
    9152,
    5928,
    -8153,
    2217,
    1715,
    910,
    7407,
    7132,
    -9850,
    -9282,
    1348,
    -7206,
    -1730,
    2041,
    13497,
    -3074,
    -6273,
    -1161,
    -8987,
    -4922,
    -7375,
    -5490,
    2852,
    1869,
    -6594,
    3272,
    4511,
    -6553,
    3752,
    2832,
    -9859,
    -11558,
    -4722,
    -11153,
    -8795,
    -524,
    -4602,
    -5591,
    8877,
    -7488,
    -10216,
    -9765,
    7310,
    19734,
    -10856,
    -8536,
    -7993,
    -7712,
    4243,
    1392,
    -283,
    812,
    -18399,
    -6851,
    -584,
    7702,
    -14380,
    -18789,
    -6617,
    10484,
    -964,
    -6037,
    8807,
    3120,
    6827,
    3533,
    -4818,
    18201,
    3733,
    7677,
    -414,
    7314,
    9222,
    11890,
    -14666,
    -6553,
    6772,
    204,
    -3815,
    -5209,
    -16279,
    -11884,
    -226,
    4824,
    -5310,
    17315,
    -13382,
    -11582,
    -763,
    14097,
    5327,
    13919,
    -12471,
    -6693,
    -3009,
    -7392,
    -6280,
    9161,
    -1423,
    8790,
    -6264,
    -413,
    5230,
    3691,
    2437,
    -5256,
    -4257,
    9092,
    -3869,
    -19872,
    -3143,
    14245,
    -10313,
    -907,
    7335,
    -15908,
    -3373,
    -2465,
    4527,
    -4302,
    -3128,
    2179,
    -13134,
    15122,
    1359,
    9702,
    -18518,
    4578,
    7697,
    1797,
    6379,
    -19934,
    -5929,
    3224,
    -1386,
    -11835,
    -7417,
    7786,
    7112,
    10555,
    -7382,
    -4179,
    -8874,
    13777,
    -4745,
    13725,
    -7455,
    1939,
    -3922,
    5535,
    -1569,
    3008,
    -2174,
    2839,
    9635,
    16311,
    -12164,
    -11006,
    6234,
    -6095,
    3178,
    -9411,
    -3435,
    3744,
    -3058,
    2710,
    -13374,
    3405,
    -5754,
    8839,
    6914,
    -9928,
    9265,
    3474,
    -9108,
    6338,
    395,
    212,
    7914,
    1263,
    9309,
    11719,
    10426,
    15465,
    10322,
    -2003,
    6785,
    -1015,
    899,
    16832,
    6878,
    1590,
    4266,
    2296,
    10092,
    770,
    9813,
    3882,
    2488,
    2838,
    -1281,
    21328,
    -10770,
    -245,
    -1242,
    19540,
    -4710,
    -17183,
    20979,
    -1385,
    1495,
    3210,
    7739,
    5589,
    -10286,
    -10056,
    7693,
    -91,
    12957,
    2182,
    11276,
    1120,
    -8984,
    -20484,
    -3684,
    17064,
    -2900,
    1094,
    -1396,
    -14191,
    3230,
    -2852,
    -874,
    12387,
    -5130,
    7678,
    -3173,
    -1648,
    12680,
    -7275,
    -4874,
    -6386,
    7626,
    10146,
    16631,
    6181,
    -10763,
    -18105,
    5496,
    -764,
    9084,
    -5390,
    -3456,
    6924,
    -17708,
    1322,
    12367,
    12316,
    -6771,
    11786,
    4752,
    -6320,
    -6566,
    11056,
    -8482,
    -8242,
    -2177,
    14630,
    11011,
    -12550,
    12470,
    -2085,
    -1937,
    -945,
    -3775,
    1706,
    2550,
    4803,
    7905,
    -1222,
    -7572,
    -6308,
    -5968,
    -2524,
    -3191,
    -3908,
    5187,
    -8756,
    7426,
    -255,
    309,
    2371,
    -639,
    -6731,
    4016,
    3567,
    -270,
    5821,
    9030,
    -2620,
    10405,
    -2066,
    -9156,
    4444,
    18714,
    -9128,
    -4573,
    9264,
    4556,
    -2098,
    3844,
    6917,
    1428,
    -827,
    -15121,
    -8891,
    -6458,
    691,
    1320,
    -5438,
    -5605,
    11110,
    2656,
    4770,
    4634,
    -20240,
    1222,
    4534,
    8399,
    2662,
    1777,
    -6755,
    689,
    -7172,
    2397,
    -5575,
    -11178,
    217,
    11625,
    5927,
    3665,
    5924,
    -18036,
    14073,
    -2862,
    3243,
    -4900,
    -4617,
    308,
    3197,
    -5788,
    -1107,
    -18571,
    -2217,
    9001,
    -1619,
    -4798,
    -17824,
    5445,
    868,
    -859,
    8584,
    -8209,
    6741,
    -3376,
    6719,
    17646,
    7008,
    -2047,
    10747,
    -11071,
    -3083,
    9958,
    -1380,
    -45,
    -14541,
    -18743,
    -8260,
    -1573,
    8855,
    1149,
    16276,
    -12530,
    -3784,
    -5861,
    -1067,
    10118,
    4619,
    2529,
    1466,
    -11568,
    4316,
    1492,
    1063,
    -8401,
    -4566,
    4799,
    2552,
    11244,
    12768,
    467,
    809,
    -612,
    8463,
    15540,
    -6570,
    3352,
    -3560,
    687,
    10114,
    -3210,
    -9020,
    8597,
    4924,
    -5338,
    13896,
    -2169,
    -7187,
    2250,
    2030,
    6125,
    -6592,
    -5374,
    -2104,
    -4715,
    141,
    -2862,
    1954,
    -2687,
    151,
    -1028,
    -5787,
    -3182,
    -3171,
    102,
    -393,
    -4262,
    -78,
    -698,
    -3687,
    12129,
    -7283,
    10131,
    -4553,
    -2098,
    -4638,
    3361,
    2508,
    6110,
    17526,
    -1730,
    4853,
    -6998,
    9882,
    253,
    -8910,
    5243,
    2555,
    -1600,
    1662,
    -3992,
    7046,
    3095,
    -13312,
    -1386,
    -2907,
    -15256,
    7984,
    -10081,
    6427,
    7498,
    -6247,
    -5860,
    15722,
    -10625,
    3236,
    -1875,
    8798,
    3070,
    -17084,
    2491,
    -8690,
    -2878,
    622,
    11211,
    15959,
    9331,
    3464,
    -3333,
    977,
    -1663,
    7321,
    11258,
    -7554,
    2202,
    -4133,
    3552,
    5206,
    7164,
    6266,
    10230,
    8606,
    -7997,
    -2078,
    1474,
    -9660,
    -8231,
    -557,
    1451,
    -878,
    -3125,
    -902,
    -1331,
    -2937,
    -11506,
    9234,
    2892,
    849,
    -2855,
    5012,
    151,
    -8063,
    7200,
    1320,
    -12363,
    1294,
    -5415,
    8516,
    -15106,
    6380,
    -12956,
    4098,
    4057,
    481,
    -12687,
    10029,
    -7678,
    4912,
    -10234,
    -3597,
    -5859,
    3939,
    -9433,
    -21560,
    2809,
    6660,
    3817,
    2647,
    -2692,
    -361,
    -176,
    -10676,
    -6464,
    75,
    -12702,
    6614,
    418,
    2655,
    -6527,
    -5091,
    -978,
    -16334,
    -3151,
    -6027,
    8104,
    16772,
    1521,
    -3114,
    -2205,
    -18169,
    10752,
    1919,
    -7765,
    6277,
    -5344,
    9259,
    1328,
    -1544,
    -8362,
    -2072,
    11566,
    -2624,
    -11747,
    -1270,
    -9875,
    7614,
    9157,
    1101,
    7318,
    8975,
    -25038,
    -10508,
    9921,
    1715,
    -3228,
    -6716,
    5440,
    5514,
    12780,
    1447,
    -4869,
    -7503,
    2405,
    1052,
    -964,
    -12904,
    -1666,
    13072,
    -2237,
    10326,
    -4539,
    7524,
    -14313,
    15551,
    -3179,
    -18347,
    -1397,
    13159,
    13558,
    7231,
    602,
    -11355,
    -2149,
    -6997,
    5074,
    6292,
    4990,
    -10534,
    8741,
    8606,
    7346,
    -4360,
    7425,
    6349,
    -1576,
    10577,
    1043,
    5716,
    10361,
    1509,
    -3552,
    1366,
    -801,
    -13009,
    -3909,
    -15987,
    2419,
    132,
    5076,
    17436,
    -6568,
    -15091,
    1904,
    -4605,
    5423,
    12790,
    7199,
    3794,
    2454,
    -7871,
    17731,
    -16521,
    -10356,
    -2401,
    -17012,
    -5060,
    6087,
    -13057,
    -3556,
    4099,
    -18070,
    -4753,
    8673,
    2393,
    5488,
    -5405,
    4779,
    -4538,
    -11153,
    5992,
    6181,
    -8908,
    10297,
    -703,
    -6262,
    2376,
    -8862,
    9014,
    8061,
    9501,
    -6241,
    -51,
    20832,
    344,
    17584,
    -3927,
    1445,
    6896,
    -8978,
    -6571,
    -10140,
    -10224,
    -2041,
    5029,
    -9772,
    11909,
    6540,
    6704,
    21809,
    -15760,
    -4799,
    -12991,
    2972,
    -1125,
    8327,
    -320,
    -2619,
    -5677,
    11467,
    -858,
    -8144,
    -19692,
    -262,
    -1662,
    -4324,
    -3767,
    1955,
    -6350,
    -5771,
    14058,
    16584,
    6085,
    -1042,
    -6080,
    -1119,
    6083,
    7384,
    -8335,
    6939,
    126,
    -4543,
    -7763,
    -3841,
    -8343,
    -7698,
    553,
    -3707,
    13869,
    9453,
    -21252,
    -1743,
    2010,
    3722,
    -18333,
    2564,
    -13091,
    18465,
    1741,
    -11000,
    15362,
    -11344,
    -2136,
    -7078,
    -11173,
    -1917,
    112,
    1475,
    -16581,
    -13633,
    758,
    1725,
    13498,
    4179,
    -1028,
    5694,
    -2219,
    1764,
    -4876,
    5586,
    -2038,
    1756,
    9292,
    16379,
    -375,
    -2616,
    6189,
    -3826,
    -6158,
    10616,
    -4974,
    17283,
    2607,
    -10462,
    -5319,
    7672,
    7220,
    -529,
    4309,
    -10318,
    -3656,
    -11363,
    15783,
    5599,
    -1532,
    7026,
    289,
    -7447,
    -14597,
    -4884,
    1583,
    -4839,
    6061,
    -11756,
    17135,
    -2300,
    1894,
    -10973,
    13923,
    -11141,
    -5141,
    -10877,
    2994,
    -4427,
    -2308,
    3958,
    8254,
    7346,
    -371,
    -8985,
    -11514,
    -1262,
    6279,
    -12991,
    -2528,
    9103,
    17461,
    7373,
    -4683,
    -244,
    -1082,
    -9124,
    9112,
    -3106,
    7198,
    -11559,
    1593,
    4876,
    -3949,
    -4209,
    8964,
    -4765,
    -10544,
    10369,
    -9831,
    -4321,
    1571,
    1677,
    3479,
    9324,
    1712,
    -3860,
    12985,
    -13141,
    -1190,
    9814,
    -16259,
    14660,
    10651,
    -8215,
    2696,
    -5756,
    15645,
    7097,
    -3008,
    -11894,
    -7127,
    6541,
    3744,
    -3803,
    -15571,
    2990,
    11,
    14081,
    -12405,
    3826,
    -897,
    9752,
    -1005,
    12048,
    -9299,
    -1837,
    5830,
    15345,
    11280,
    -6186,
    14771,
    -4159,
    7999,
    -846,
    12486,
    -6831,
    -16058,
    7156,
    2007,
    1205,
    -15861,
    -17349,
    -15097,
    -1059,
    3153,
    -5523,
    8409,
    11328,
    -6254,
    -13546,
    1037,
    14396,
    3122,
    -3551,
    1221,
    -8533,
    -10733,
    7781,
    4433,
    9749,
    -4782,
    -193,
    -13100,
    1425,
    9836,
    10753,
    -10687,
    -7887,
    10268,
    5670,
    -15388,
    -11944,
    8933,
    -6948,
    -2487,
    -4736,
    2247,
    18818,
    -3007,
    -9203,
    -5859,
    -6461,
    11067,
    2024,
    -5622,
    3064,
    -5078,
    -12278,
    -9491,
    7762,
    -14912,
    21865,
    7321,
    206,
    17551,
    -16462,
    -463,
    6464,
    -7554,
    7104,
    9311,
    3963,
    -8911,
    2611,
    -2581,
    6772,
    -5752,
    -6492,
    -15088,
    -12291,
    3189,
    -4304,
    -5330,
    -4136,
    1922,
    944,
    12848,
    1442,
    19989,
    -3695,
    3716,
    3978,
    17123,
    9173,
    10082,
    3266,
    6502,
    -5593,
    12555,
    3160,
    -1472,
    3726,
    -6750,
    -9523,
    258,
    -3655,
    2137,
    -9074,
    3131,
    -8904,
    2799,
    -5022,
    -5185,
    -2875,
    9447,
    -7967,
    -2959,
    -2276,
    3675,
    -6375,
    -5532,
    5176,
    5163,
    -6914,
    -13292,
    4560,
    -7064,
    -8835,
    -10331,
    -21921,
    -1648,
    3839,
    15695,
    7496,
    2971,
    943,
    -5656,
    9629,
    -3570,
    1242,
    -993,
    3448,
    -17843,
    2187,
    6770,
    14426,
    2373,
    -1531,
    -5682,
    -5274,
    10466,
    -4973,
    -6635,
    17547,
    3279,
    5949,
    11468,
    12748,
    4614,
    -956,
    -4681,
    5227,
    -10591,
    -4248,
    6286,
    -10216,
    -15352,
    -3459,
    -8777,
    -6485,
    12674,
    -574,
    21198,
    3399,
    -564,
    -2699,
    -2209,
    10828,
    -11054,
    -1930,
    6811,
    642,
    348,
    11235,
    -12526,
    4643,
    2762,
    -14982,
    -14934,
    -6140,
    6566,
    3381,
    741,
    3996,
    -2574,
    2301,
    16629,
    1564,
    5008,
    -3247,
    2895,
    3140,
    10923,
    -3642,
    -9871,
    5243,
    1542,
    -12779,
    7665,
    -9428,
    3713,
    -14886,
    1834,
    -3866,
    -5939,
    -2708,
    4745,
    9007,
    -4492,
    -5495,
    12919,
    3490,
    -5987,
    -7022,
    4543,
    -13520,
    2465,
    -11036,
    12659,
    -17349,
    16434,
    7786,
    -4652,
    -8810,
    11463,
    -272,
    5579,
    -2738,
    -3677,
    -6768,
    14141,
    7283,
    4,
    -5629,
    -4558,
    3871,
    -699,
    10966,
    -6097,
    -2524,
    2754,
    -3468,
    -4756,
    -7509,
    -1891,
    6619,
    -3004,
    12146,
    -9658,
    15725,
    5473,
    6539,
    -644,
    -12803,
    14753,
    -7310,
    3317,
    11683,
    -6239,
    9354,
    3625,
    1252,
    8115,
    -10025,
    -4996,
    -7096,
    351,
    15419,
    -2904,
    -2746,
    -2652,
    12916,
    -5282,
    -5202,
    -5931,
    -3298,
    698,
    -6907,
    -7590,
    2162,
    -2499,
    -4560,
    -48,
    11084,
    11342,
    -1345,
    -7215,
    14863,
    -8441,
    -3417,
    541,
    -8370,
    8092,
    -18329,
    4350,
    17531,
    -3597,
    5031,
    7395,
    -3942,
    13302,
    9953,
    -3570,
    9578,
    1954,
    -2238,
    10171,
    13156,
    -2145,
    3503,
    -3852,
    9435,
    -9033,
    5770,
    180,
    8560,
    10866,
    4551,
    -6149,
    12116,
    -189,
    -8251,
    4504,
    -12943,
    -3495,
    -7566,
    -5935,
    3648,
    158,
    4912,
    4770,
    2363,
    -5325,
    -7885,
    5436,
    2936,
    10130,
    2513,
    -2441,
    -521,
    327,
    4725,
    20299,
    7649,
    3155,
    -3021,
    -9784,
    -6596,
    6425,
    826,
    7805,
    2857,
    -176,
    9672,
    12051,
    -2169,
    2370,
    -16329,
    -11379,
    6746,
    2410,
    -12900,
    7330,
    -6175,
    4662,
    2603,
    -11810,
    2716,
    4555,
    11338,
    5749,
    -10579,
    -4540,
    1308,
    3606,
    6006,
    4627,
    -1430,
    1085,
    -7756,
    4748,
    -6972,
    -5606,
    3883,
    -5250,
    -10243,
    -11101,
    637,
    -11722,
    -2769,
    -16375,
    -207,
    10135,
    -4289,
    13680,
    -789,
    -6790,
    6175,
    -1351,
    -6526,
    17131,
    13977,
    17745,
    -7406,
    1041,
    -11594,
    6957,
    -1471,
    -282,
    5237,
    11532,
    -6243,
    -2211,
    -15067,
    1192,
    5751,
    -98,
    11159,
    -5538,
    -13754,
    12713,
    15960,
    -8677,
    4061,
    6881,
    9744,
    1306,
    -6410,
    -3134,
    -9758,
    2183,
    -1484,
    11192,
    -6300,
    10432,
    7620,
    798,
    3033,
    3810,
    8973,
    -8456,
    -1395,
    10693,
    -896,
    -10585,
    -5793,
    4762,
    -3178,
    -8953,
    -9732,
    3162,
    4473,
    12511,
    -2362,
    1324,
    6642,
    -6473,
    -5459,
    1756,
    11254,
    2383,
    14184,
    -7623,
    1112,
    1713,
    5591,
    6473,
    7446,
    -776,
    -12240,
    7082,
    -2312,
    11367,
    4442,
    -3639,
    4229,
    -3088,
    -2364,
    9023,
    6982,
    8577,
    1628,
    -1012,
    -15154,
    11689,
    -3727,
    -1514,
    -9205,
    -1895,
    -160,
    -8715,
    6597,
    -5630,
    4134,
    13625,
    10493,
    -6325,
    -11659,
    4958,
    12515,
    -9935,
    -5719,
    -4535,
    6400,
    -6134,
    6077,
    9351,
    -267,
    -6068,
    -1569,
    5477,
    -3986,
    6874,
    9482,
    -7755,
    7435,
    7544,
    -1814,
    2323,
    1698,
    -286,
    -11977,
    6465,
    -9786,
    -9404,
    -3838,
    -2827,
    8558,
    -2538,
    -8346,
    355,
    -1680,
    -5399,
    54,
    9843,
    4177,
    7138,
    1957,
    11398,
    -4324,
    -1158,
    8842,
    -8375,
    3752,
    -13240,
    12500,
    -10273,
    9756,
    9298,
    -16052,
    3128,
    2746,
    5438,
    4688,
    1226,
    13404,
    2571,
    -2172,
    -3289,
    -1818,
    -2397,
    -2834,
    -4183,
    11789,
    -7782,
    -13413,
    -932,
    -4980,
    4600,
    11347,
    -2342,
    -4003,
    4653,
    -7366,
    3869,
    13079,
    2135,
    11580,
    19572,
    856,
    -4343,
    -1674,
    -3426,
    -6529,
    6394,
    9032,
    5867,
    642,
    -9233,
    286,
    -7805,
    285,
    -15454,
    3977,
    70,
    -2725,
    -17036,
    -2314,
    538,
    -8901,
    -3986,
    -15207,
    -1493,
    -14978,
    -8699,
    74,
    11759,
    -5619,
    -2611,
    5663,
    -2990,
    2141,
    10589,
    12000,
    897,
    -6345,
    -1655,
    4623,
    -7024,
    15094,
    -4566,
    -5837,
    2625,
    -9244,
    -4393,
    -4331,
    -4979,
    -10774,
    -1695,
    4968,
    7052,
    -1124,
    -5664,
    5144,
    -4660,
    14501,
    -2748,
    -5566,
    7318,
    -4688,
    -7698,
    -9200,
    2171,
    -479,
    10632,
    -4870,
    9074,
    6632,
    1987,
    -3992,
    -7284,
    -9914,
    21443,
    5955,
    782,
    364,
    -2490,
    -9256,
    -11800,
    590,
    -7854,
    -234,
    -6875,
    3876,
    57,
    -16276,
    8828,
    -103,
    -9371,
    8957,
    14933,
    6021,
    -3540,
    -35,
    -428,
    5222,
    -13848,
    -4680,
    7223,
    -345,
    21061,
    -2786,
    5375,
    -4304,
    10561,
    -4852,
    884,
    169,
    12411,
    4468,
    5020,
    11085,
    2074,
    219,
    -1761,
    -10812,
    -9193,
    -2155,
    2779,
    527,
    7250,
    7879,
    161,
    -2037,
    808,
    -13596,
    -6546,
    5106,
    -1424,
    3628,
    -14640,
    14844,
    7776,
    5272,
    4179,
    -6169,
    10871,
    -1447,
    16417,
    1966,
    1674,
    3780,
    -10267,
    7771,
    -16265,
    7807,
    3612,
    -13216,
    6213,
    -4771,
    4318,
    -10217,
    10831,
    -7519,
    -1478,
    -15348,
    -1052,
    -9661,
    10497,
    1788,
    -609,
    6004,
    4077,
    9278,
    -2103,
    -16463,
    14231,
    7558,
    -4179,
    8488,
    -1700,
    985,
    -1565,
    3444,
    -13648,
    6084,
    -22831,
    11574,
    6740,
    9604,
    4240,
    -13954,
    2263,
    3455,
    4187,
    9219,
    5096,
    -8977,
    -4137,
    -21619,
    -2460,
    5631,
    -223,
    -10665,
    19977,
    -6509,
    9899,
    1569,
    -9913,
    -3944,
    9312,
    13437,
    -15736,
    -5861,
    1753,
    20163,
    5968,
    14332,
    -4320,
    11201,
    1679,
    5000,
    2993,
    18712,
    -5895,
    6553,
    -11883,
    4437,
    -5118,
    -5013,
    2451,
    1822,
    8246,
    1267,
    -12927,
    9324,
    -4013,
    8411,
    15824,
    -11540,
    1348,
    5034,
    681,
    4977,
    -8843,
    -11071,
    887,
    -1733,
    2252,
    -2226,
    2349,
    -1120,
    -1388,
    9902,
    2705,
    -6285,
    -10390,
    6144,
    -7785,
    -4748,
    -11504,
    4035,
    1562,
    6352,
    -3953,
    -2784,
    4761,
    -7033,
    -2713,
    -6765,
    3947,
    -1733,
    -2551,
    -987,
    14591,
    -2654,
    9800,
    -2757,
    2312,
    -3552,
    11595,
    18308,
    4332,
    -8745,
    -1822,
    -1149,
    -8290,
    5558,
    -8351,
    -618,
    -8595,
    6356,
    -9238,
    -1175,
    13526,
    5312,
    3790,
    2850,
    -5356,
    -9077,
    -3033,
    -7689,
    5752,
    6761,
    -6830,
    8974,
    -738,
    5474,
    -5826,
    -918,
    -5294,
    -4439,
    -8460,
    -1179,
    14807,
    -5692,
    -4500,
    10544,
    -1606,
    -9463,
    -4848,
    -8198,
    9322,
    -11594,
    -15145,
    -10423,
    1041,
    5446,
    9128,
    2667,
    9338,
    13795,
    -13258,
    21408,
    4310,
    4289,
    -13959,
    -4057,
    4236,
    1741,
    6675,
    -8868,
    -160,
    15502,
    10756,
    -9437,
    -13352,
    1635,
    -8846,
    5288,
    -5473,
    -6955,
    -2205,
    -2164,
    -5197,
    -3377,
    -2214,
    -772,
    7309,
    -5844,
    -8920,
    -9548,
    10841,
    5399,
    6256,
    -12291,
    6823,
    -11140,
    13505,
    -6473,
    4770,
    5871,
    3816,
    6896,
    -14041,
    -3561,
    482,
    -5613,
    -2858,
    18448,
    6918,
    -1695,
    -7566,
    -5821,
    10823,
    1350,
    877,
    2538,
    -5318,
    -642,
    4778,
    -2517,
    4683,
    3687,
    -3873,
    -8045,
    -2385,
    -7709,
    2383,
    5201,
    -8844,
    3019,
    -4137,
    7616,
    6228,
    10432,
    3153,
    -6211,
    1184,
    -12237,
    8050,
    6386,
    -4080,
    -8402,
    -2666,
    -6499,
    -19076,
    -9481,
    7144,
    -3513,
    -3430,
    2155,
    5969,
    -8212,
    -4416,
    -866,
    -16809,
    16618,
    13774,
    -9450,
    15380,
    3781,
    -1707,
    2894,
    9174,
    -12291,
    893,
    -3918,
    -7003,
    -5431,
    -13878,
    -2948,
    5273,
    3688,
    7344,
    -7539,
    -5690,
    -861,
    -8400,
    3811,
    -1323,
    4970,
    1868,
    -1603,
    -5869,
    -9136,
    -22617,
    3952,
    4515,
    -8054,
    747,
    -7636,
    -8165,
    11894,
    -5724,
    -13877,
    4445,
    -186,
    -2027,
    -1416,
    7467,
    18679,
    -4491,
    -17777,
    -8036,
    1935,
    339,
    -4818,
    1103,
    -9728,
    6006,
    871,
    -5934,
    5525,
    -5414,
    4362,
    -5300,
    11152,
    -1640,
    2367,
    2693,
    -2365,
    5364,
    -8279,
    2468,
    -8151,
    5509,
    17592,
    -12068,
    -5255,
    666,
    -2731,
    -4370,
    -14392,
    -4432,
    6411,
    -11703,
    1227,
    2507,
    -16691,
    -9992,
    -2269,
    -5007,
    -7664,
    423,
    5379,
    -4717,
    -5357,
    9005,
    8148,
    6259,
    -3648,
    1175,
    -982,
    -1460,
    -2317,
    -3186,
    -13702,
    -2414,
    -1978,
    4273,
    -11952,
    2624,
    3691,
    -3336,
    12843,
    8689,
    -13136,
    7301,
    8174,
    -10681,
    8457,
    -4193,
    -2733,
    8226,
    1150,
    12476,
    -1281,
    3481,
    -9641,
    222,
    -771,
    6961,
    3921,
    -4888,
    -666,
    -5363,
    -6413,
    6504,
    -2545,
    -2125,
    -2854,
    14012,
    6392,
    -3261,
    5391,
    145,
    -7398,
    -3756,
    -7027,
    -2846,
    3394,
    151,
    1425,
    11766,
    8551,
    4259,
    -4929,
    -6121,
    -2508,
    -1427,
    -6808,
    6005,
    -4350,
    7895,
    -8009,
    4853,
    3845,
    2336,
    14139,
    -2150,
    -10831,
    10745,
    -3768,
    408,
    -2523,
    -1061,
    11361,
    4539,
    -405,
    85,
    15245,
    19320,
    2099,
    9628,
    4499,
    -12542,
    2728,
    -8680,
    2518,
    -1247,
    -7353,
    153,
    -2715,
    8864,
    -699,
    -9891,
    4979,
    4214,
    -8374,
    -21602,
    4815,
    1753,
    7298,
    1200,
    -2337,
    13296,
    -2468,
    7184,
    3888,
    23702,
    3073,
    4512,
    1456,
    13834,
    -5061,
    4079,
    -8054,
    3923,
    19281,
    13418,
    -11518,
    -14304,
    11932,
    -2701,
    3610,
    26416,
    -6722,
    13371,
    -9669,
    -6385,
    15246,
    -2950,
    -12007,
    18228,
    -19031,
    -8982,
    -5174,
    2255,
    -4666,
    -9673,
    1194,
    2452,
    14673,
    8399,
    5502,
    -10080,
    -6344,
    -4408,
    9509,
    2291,
    -304,
    -13203,
    731,
    -8201,
    1502,
    -3474,
    8738,
    -12968,
    12180,
    6541,
    -2248,
    2573,
    2140,
    3560,
    -17671,
    2814,
    12211,
    -6146,
    -8469,
    4456,
    -9519,
    -752,
    11897,
    -3422,
    14095,
    7951,
    3195,
    -2333,
    -7817,
    12460,
    -6837,
    2480,
    -5690,
    6373,
    -7443,
    -4947,
    6134,
    -9585,
    -5371,
    -10988,
    -1897,
    -2343,
    -19053,
    -9067,
    2370,
    -10206,
    8827,
    -6424,
    1221,
    4067,
    1222,
    16809,
    -1296,
    -6279,
    -2296,
    -864,
    8511,
    891,
    4836,
    8,
    7131,
    -5102,
    4289,
    -11044,
    5985,
    -5057,
    5990,
    11602,
    -14951,
    3674,
    4091,
    151,
    -6402,
    -3578,
    -9537,
    -2210,
    -5152,
    8467,
    -1919,
    4713,
    -1724,
    -8080,
    6923,
    -3652,
    4320,
    -1925,
    1983,
    5768,
    -3471,
    6047,
    -6824,
    -17824,
    -13066,
    1242,
    9246,
    -1768,
    -9699,
    7774,
    -2190,
    11715,
    -12042,
    3009,
    -2635,
    98,
    1349,
    2189,
    -1424,
    12698,
    -3749,
    5763,
    -5779,
    7457,
    -6155,
    -6643,
    -7608,
    3655,
    -6040,
    -3596,
    632,
    -8422,
    -6157,
    5430,
    -16874,
    -14647,
    -17438,
    -91,
    -435,
    794,
    2435,
    -2422,
    10868,
    2693,
    16508,
    768,
    6019,
    8596,
    -5879,
    -1178,
    13520,
    8637,
    14564,
    13503,
    -17806,
    -1891,
    -13233,
    -12932,
    -3439,
    -1853,
    -10838,
    -4973,
    18116,
    1416,
    3442,
    -6765,
    -3222,
    3412,
    -4608,
    4693,
    16910,
    6636,
    3287,
    8072,
    -4266,
    -1450,
    -6608,
    -4189,
    3351,
    -853,
    -647,
    -4231,
    7267,
    4959,
    11854,
    -7271,
    35,
    -10254,
    14441,
    -4361,
    7297,
    242,
    -10295,
    7387,
    2061,
    1513,
    2936,
    -5171,
    -710,
    846,
    -7751,
    -848,
    9155,
    5258,
    -12504,
    5514,
    -14157,
    8384,
    -9160,
    3475,
    2711,
    -65,
    1604,
    -2951,
    4038,
    9635,
    -783,
    -3868,
    -15115,
    2231,
    -6957,
    -4791,
    6140,
    4856,
    10783,
    3890,
    497,
    766,
    7139,
    7652,
    -1226,
    8760,
    -7441,
    1090,
    8932,
    1664,
    -1046,
    -2425,
    5648,
    17243,
    11999,
    -7811,
    7405,
    7687,
    2210,
    5353,
    724,
    11774,
    -1595,
    -8449,
    -9140,
    -5215,
    -9241,
    4496,
    -5205,
    -8024,
    9439,
    -7009,
    -1029,
    -11115,
    11957,
    1327,
    -1976,
    1673,
    7285,
    -5234,
    4705,
    7406,
    -12711,
    10947,
    -2155,
    -11189,
    -2715,
    -6553,
    2205,
    -1075,
    -13498,
    12077,
    12399,
    -12908,
    4423,
    8902,
    924,
    -7885,
    -7945,
    -13329,
    -5972,
    1530,
    2013,
    -1912,
    -16443,
    7518,
    -3125,
    -6741,
    1710,
    -1058,
    -21470,
    -2024,
    -6446,
    12049,
    -12589,
    3869,
    -3907,
    1135,
    -841,
    -9561,
    -1645,
    2770,
    -1721,
    5146,
    -7906,
    -2324,
    -5494,
    -2316,
    9885,
    3735,
    -10403,
    2495,
    -6742,
    11805,
    3968,
    6215,
    5793,
    12547,
    15011,
    -2436,
    1572,
    -6412,
    -6369,
    9047,
    -13426,
    756,
    -9593,
    -5218,
    676,
    -726,
    14471,
    6383,
    -464,
    1155,
    16788,
    8112,
    -2667,
    1560,
    -3009,
    -5729,
    3096,
    7007,
    -2939,
    9641,
    -14483,
    4786,
    6728,
    2077,
    8232,
    -6221,
    -4569,
    -6376,
    4096,
    2708,
    3564,
    -3338,
    8515,
    -5087,
    -7790,
    -6049,
    -1112,
    2969,
    5113,
    7097,
    10135,
    -1407,
    -5624,
    1950,
    5535,
    3844,
    6359,
    -11640,
    -3625,
    -8229,
    -3868,
    6600,
    -500,
    11191,
    -8067,
    -3329,
    15,
    2165,
    -10667,
    1680,
    25876,
    -8860,
    9362,
    -1996,
    5538,
    1575,
    6369,
    -1695,
    6899,
    7146,
    -2737,
    -1187,
    -1336,
    17418,
    12818,
    -9550,
    -9583,
    -10251,
    10535,
    6518,
    -1544,
    824,
    -19251,
    4804,
    -7056,
    -5646,
    -1081,
    -14536,
    -4030,
    -946,
    13787,
    -4075,
    -963,
    -6091,
    -7388,
    -2011,
    -16169,
    -4967,
    -6877,
    -3351,
    4565,
    367,
    4227,
    -1851,
    104,
    4486,
    16624,
    17979,
    -768,
    20949,
    10478,
    7716,
    1792,
    10404,
    -8495,
    -6816,
    6787,
    17953,
    -9608,
    -5777,
    6063,
    255,
    1958,
    4172,
    9274,
    -932,
    4612,
    -774,
    1459,
    3987,
    8159,
    3782,
    683,
    14288,
    2935,
    2116,
    7463,
    -2746,
    -3320,
    3207,
    1575,
    -4419,
    11704,
    10117,
    4203,
    -3448,
    2421,
    -1418,
    1197,
    3187,
    16931,
    -3237,
    2671,
    18704,
    9017,
    4055,
    -9756,
    643,
    -5285,
    3263,
    5899,
    -4487,
    7854,
    -4688,
    21617,
    -1693,
    -23561,
    -6537,
    205,
    -4473,
    -6898,
    6945,
    357,
    -1350,
    -1245,
    2593,
    3651,
    -7368,
    6748,
    -6046,
    -3805,
    -3158,
    -6169,
    -2970,
    2395,
    -18,
    1608,
    1592,
    744,
    6013,
    -3878,
    3238,
    -5113,
    13398,
    12798,
    5732,
    6181,
    -4656,
    4310,
    4174,
    -810,
    2036,
    3522,
    3019,
    3170,
    -13726,
    -3045,
    -5656,
    1225,
    -5575,
    22223,
    12016,
    -9469,
    -3903,
    460,
    16922,
    5262,
    1604,
    -20300,
    -3807,
    -774,
    693,
    -6320,
    -6407,
    -4022,
    914,
    -12544,
    13734,
    -12681,
    -12117,
    -4604,
    -8719,
    -12623,
    -10282,
    7047,
    7051,
    -3931,
    520,
    -14248,
    474,
    -8756,
    901,
    1080,
    11330,
    15003,
    3093,
    -1842,
    6511,
    8559,
    496,
    4413,
    -1765,
    648,
    -10699,
    -759,
    10988,
    17797,
    756,
    -4754,
    -1409,
    -10454,
    4621,
    -18438,
    17600,
    -2358,
    351,
    17928,
    1236,
    8047,
    683,
    -6941,
    4805,
    5763,
    -4193,
    248,
    -6000,
    12575,
    8766,
    -8838,
    -2449,
    -1992,
    -5126,
    -2733,
    -1935,
    -7987,
    -4594,
    -4191,
    -9362,
    -2186,
    -8007,
    -8493,
    -6141,
    -736,
    -14440,
    9754,
    -3074,
    2330,
    -5811,
    -2161,
    -9987,
    -8015,
    8114,
    6467,
    -926,
    4467,
    -1304,
    -4408,
    1217,
    -8609,
    10096,
    6883,
    -8639,
    -18986,
    -2139,
    21090,
    6767,
    -238,
    -3005,
    7277,
    9421,
    -1994,
    -3838,
    -9993,
    -8528,
    2,
    9508,
    1329,
    5183,
    393,
    4809,
    -1886,
    6188,
    -4329,
    4267,
    1406,
    -3729,
    6078,
    387,
    -6307,
    5020,
    7162,
    6500,
    18546,
    -1429,
    4780,
    9580,
    139,
    4578,
    -145,
    6115,
    7815,
    3225,
    1988,
    -5778,
    14798,
    4838,
    15242,
    17785,
    -10450,
    1484,
    -3477,
    -7517,
    10490,
    560,
    13474,
    -8540,
    -6798,
    2353,
    1849,
    -3362,
    8266,
    6211,
    -711,
    -3752,
    11034,
    14723,
    2878,
    -639,
    -4094,
    3309,
    2762,
    1963,
    9757,
    11573,
    3743,
    -8841,
    -16492,
    -3362,
    4162,
    4053,
    7547,
    -2367,
    2243,
    -7691,
    4802,
    -7625,
    1359,
    3144,
    -1180,
    -9074,
    1622,
    1925,
    10900,
    768,
    2975,
    -4157,
    2588,
    6238,
    -1424,
    -9418,
    1989,
    -8957,
    -2720,
    11121,
    -9167,
    4260,
    19248,
    15229,
    -14184,
    2947,
    8112,
    5397,
    3052,
    860,
    5020,
    -1746,
    6303,
    -6814,
    10891,
    4041,
    19516,
    -14091,
    -1856,
    -11770,
    -3441,
    11923,
    -5697,
    -1784,
    5795,
    -10894,
    13301,
    -928,
    -1071,
    -4994,
    -414,
    -3334,
    1818,
    -3730,
    1617,
    8432,
    2157,
    -13923,
    -4363,
    -1240,
    6128,
    -11299,
    4781,
    103,
    -8175,
    1775,
    3107,
    -7095,
    3958,
    20612,
    -3676,
    7241,
    -1770,
    19364,
    -7018,
    1283,
    9041,
    3585,
    2921,
    5292,
    8212,
    -10897,
    -1474,
    -6415,
    -2772,
    311,
    11870,
    1644,
    5718,
    9165,
    -1497,
    9128,
    -5046,
    3337,
    -10606,
    7550,
    4258,
    2917,
    6736,
    5754,
    -2501,
    5492,
    -11912,
    -9753,
    16776,
    5218,
    -2703,
    -19696,
    8577,
    -8278,
    1503,
    -8765,
    -12243,
    15554,
    9307,
    10126,
    -8162,
    -15014,
    -3126,
    1315,
    -8916,
    8420,
    6061,
    6526,
    -828,
    -4559,
    -287,
    -4830,
    -11819,
    10997,
    -7282,
    2783,
    1188,
    1191,
    4595,
    1277,
    5726,
    -6316,
    11165,
    -14826,
    -7920,
    -22243,
    -15113,
    -5605,
    -19398,
    7040,
    3176,
    7435,
    -16038,
    559,
    3516,
    6289,
    -3989,
    14678,
    6329,
    15692,
    -368,
    -2478,
    4040,
    -6132,
    -3459,
    5825,
    8114,
    10291,
    7883,
    -4129,
    887,
    5169,
    3814,
    -7995,
    1022,
    -415,
    -7242,
    -7152,
    -1121,
    -6458,
    -966,
    -2500,
    1667,
    -18939,
    9469,
    5922,
    -1072,
    -94,
    -6865,
    19726,
    6236,
    -1605,
    2582,
    -11,
    -10225,
    -4365,
    7520,
    -50,
    4320,
    -4450,
    291,
    1411,
    6761,
    -2538,
    3021,
    2266,
    987,
    3671,
    -4760,
    -8290,
    6154,
    1514,
    -1938,
    25821,
    -3986,
    7028,
    1523,
    8485,
    19133,
    4567,
    -11488,
    3543,
    -4095,
    -9229,
    -12634,
    7182,
    -16641,
    12133,
    -19561,
    2019,
    12267,
    -18838,
    3953,
    -3709,
    -13117,
    8238,
    5377,
    3710,
    1686,
    6962,
    -5575,
    18745,
    485,
    9489,
    -1562,
    2667,
    4166,
    -13227,
    -8668,
    -10546,
    -747,
    -1385,
    15155,
    -3819,
    9418,
    1222,
    -17083,
    2022,
    4236,
    -536,
    4715,
    6063,
    25516,
    -6263,
    -552,
    3507,
    428,
    2343,
    -2671,
    -4647,
    -1328,
    -9670,
    -2499,
    -4808,
    4622,
    8292,
    -3992,
    24598,
    -18983,
    -8413,
    -8913,
    -4681,
    1872,
    14938,
    -12202,
    6931,
    -8011,
    3805,
    -4680,
    6311,
    556,
    351,
    2460,
    -2613,
    5739,
    -1324,
    11226,
    1290,
    -4539,
    -1270,
    -5807,
    -6576,
    -9778,
    3456,
    -2219,
    -11910,
    4681,
    8045,
    2082,
    -5036,
    -1760,
    4920,
    -6250,
    -11181,
    -3825,
    5392,
    4954,
    -12430,
    31,
    17851,
    -1218,
    -19879,
    15200,
    15234,
    -4616,
    -3274,
    12853,
    8748,
    8285,
    2001,
    2125,
    2143,
    11299,
    -5108,
    -3710,
    -673,
    -807,
    -2948,
    7810,
    -3654,
    -14541,
    -2394,
    -14793,
    7671,
    20282,
    -3951,
    111,
    16210,
    1699,
    -4316,
    5694,
    4710,
    5523,
    5593,
    10404,
    6759,
    -11450,
    -8126,
    -131,
    8512,
    -11681,
    2430,
    9788,
    -9919,
    -2809,
    1533,
    7961,
    6783,
    9367,
    6856,
    -4404,
    -12653,
    -3633,
    5689,
    17178,
    -2165,
    -1780,
    -83,
    -958,
    -6110,
    22652,
    3812,
    3897,
    9423,
    1255,
    -7935,
    465,
    -3746,
    4819,
    -1251,
    1565,
    -5107,
    -9799,
    -4403,
    6164,
    112,
    4617,
    4796,
    5345,
    -6569,
    4872,
    -5997,
    15402,
    4269,
    5922,
    -2390,
    -14167,
    4336,
    861,
    -4751,
    12008,
    -111,
    -9391,
    12622,
    -3448,
    -7445,
    6131,
